booster[0]:
0:[f2<-0.255711198] yes=1,no=2,missing=2
	1:[f2<-0.474711448] yes=3,no=4,missing=4
		3:[f13<1.06103277] yes=7,no=8,missing=8
			7:[f13<-1.27778709] yes=13,no=14,missing=14
				13:[f16<-0.403826743] yes=25,no=26,missing=26
					25:[f35<1.95829558] yes=45,no=46,missing=46
						45:leaf=0.0206047371
						46:leaf=-0.17064254
					26:[f35<1.95829558] yes=47,no=48,missing=48
						47:leaf=-0.1185131
						48:leaf=-0.197724149
				14:[f2<-0.845541894] yes=27,no=28,missing=28
					27:[f20<4.02953911] yes=49,no=50,missing=50
						49:leaf=-0.198702574
						50:leaf=0.199785277
					28:[f17<5.62271261] yes=51,no=52,missing=52
						51:leaf=-0.159999475
						52:leaf=-0.0136338128
			8:[f2<-0.837746143] yes=15,no=16,missing=16
				15:[f10<-0.16566354] yes=29,no=30,missing=30
					29:[f27<5.40617275] yes=53,no=54,missing=54
						53:leaf=-0.118614271
						54:leaf=0.199990645
					30:[f2<-0.845541894] yes=55,no=56,missing=56
						55:leaf=-0.198813125
						56:leaf=-0.143493921
				16:[f24<4.36744452] yes=31,no=32,missing=32
					31:[f18<4.99928808] yes=57,no=58,missing=58
						57:leaf=-0.00300582708
						58:leaf=-0.199999198
					32:leaf=-0.199999511
		4:[f35<1.95829558] yes=9,no=10,missing=10
			9:[f13<-0.262010008] yes=17,no=18,missing=18
				17:[f34<2.24811649] yes=33,no=34,missing=34
					33:[f19<5.13780785] yes=59,no=60,missing=60
						59:leaf=0.185690388
						60:leaf=-0.177417859
					34:[f26<4.99813557] yes=61,no=62,missing=62
						61:leaf=0.00471178582
						62:leaf=-0.199996948
				18:[f25<4.52521372] yes=35,no=36,missing=36
					35:[f24<4.36744452] yes=63,no=64,missing=64
						63:leaf=0.0391119681
						64:leaf=-0.186040998
					36:leaf=-0.199998781
			10:[f22<3.28235865] yes=19,no=20,missing=20
				19:[f30<4.08141088] yes=37,no=38,missing=38
					37:[f27<5.40617275] yes=65,no=66,missing=66
						65:leaf=0.199998006
						66:leaf=-0.199997991
					38:leaf=-0.199999094
				20:leaf=-0.199999675
	2:[f31<7.66522503] yes=5,no=6,missing=6
		5:[f27<5.40617275] yes=11,no=12,missing=12
			11:[f2<-0.142100319] yes=21,no=22,missing=22
				21:[f22<3.28235865] yes=39,no=40,missing=40
					39:[f34<2.24811649] yes=67,no=68,missing=68
						67:leaf=0.138477966
						68:leaf=-0.101123922
					40:[f32<0.958607733] yes=69,no=70,missing=70
						69:leaf=0.193968996
						70:leaf=-0.199998498
				22:[f30<4.08141088] yes=41,no=42,missing=42
					41:[f25<4.52521372] yes=71,no=72,missing=72
						71:leaf=0.193930849
						72:leaf=-0.199988827
					42:[f2<0.931457222] yes=73,no=74,missing=74
						73:leaf=-0.196212679
						74:leaf=0.169509307
			12:[f2<1.026227] yes=23,no=24,missing=24
				23:leaf=-0.199998394
				24:[f13<-1.11522734] yes=43,no=44,missing=44
					43:[f10<-0.16566354] yes=75,no=76,missing=76
						75:leaf=-0.199944869
						76:leaf=0.19587028
					44:[f5<1.15594852] yes=77,no=78,missing=78
						77:leaf=-0.198463574
						78:leaf=-0.0135908471
		6:leaf=-0.199998468
booster[1]:
0:[f2<-0.255711198] yes=1,no=2,missing=2
	1:[f2<-0.534919977] yes=3,no=4,missing=4
		3:[f13<1.06103277] yes=7,no=8,missing=8
			7:[f13<-1.27778709] yes=13,no=14,missing=14
				13:[f16<-0.403826743] yes=25,no=26,missing=26
					25:[f35<1.95829558] yes=47,no=48,missing=48
						47:leaf=0.0120316884
						48:leaf=-0.152385116
					26:[f35<1.95829558] yes=49,no=50,missing=50
						49:leaf=-0.112075604
						50:leaf=-0.179674029
				14:[f2<-0.845541894] yes=27,no=28,missing=28
					27:[f20<4.02953911] yes=51,no=52,missing=52
						51:leaf=-0.180669084
						52:leaf=0.181674168
					28:[f2<-0.800665975] yes=53,no=54,missing=54
						53:leaf=-0.118933521
						54:leaf=-0.155763254
			8:[f16<-0.564441979] yes=15,no=16,missing=16
				15:[f2<-0.844822705] yes=29,no=30,missing=30
					29:[f10<-0.266738206] yes=55,no=56,missing=56
						55:leaf=0.0418047756
						56:leaf=-0.176266432
					30:[f24<4.36744452] yes=57,no=58,missing=58
						57:leaf=0.050487455
						58:leaf=-0.182072267
				16:[f2<-0.837746143] yes=31,no=32,missing=32
					31:[f10<-0.16566354] yes=59,no=60,missing=60
						59:leaf=-0.124465682
						60:leaf=-0.172095895
					32:[f2<-0.794596195] yes=61,no=62,missing=62
						61:leaf=0.00934348721
						62:leaf=-0.110625021
		4:[f35<1.95829558] yes=9,no=10,missing=10
			9:[f13<-0.262010008] yes=17,no=18,missing=18
				17:[f34<2.24811649] yes=33,no=34,missing=34
					33:[f18<4.99928808] yes=63,no=64,missing=64
						63:leaf=0.166816607
						64:leaf=-0.2089874
					34:[f26<4.99813557] yes=65,no=66,missing=66
						65:leaf=-0.0328730009
						66:leaf=-0.184032694
				18:[f25<4.52521372] yes=35,no=36,missing=36
					35:[f24<4.36744452] yes=67,no=68,missing=68
						67:leaf=0.0215649735
						68:leaf=-0.175037727
					36:[f2<-0.474711448] yes=69,no=70,missing=70
						69:leaf=-0.187847361
						70:leaf=-0.181871966
			10:[f22<3.28235865] yes=19,no=20,missing=20
				19:[f30<4.08141088] yes=37,no=38,missing=38
					37:[f27<5.40617275] yes=71,no=72,missing=72
						71:leaf=0.188981712
						72:leaf=-0.183094338
					38:[f2<-0.474711448] yes=73,no=74,missing=74
						73:leaf=-0.185698435
						74:leaf=-0.181872234
				20:[f2<-0.474711448] yes=39,no=40,missing=40
					39:[f13<-1.27778709] yes=75,no=76,missing=76
						75:leaf=-0.182704419
						76:leaf=-0.185347155
					40:leaf=-0.181872785
	2:[f31<7.66522503] yes=5,no=6,missing=6
		5:[f27<5.40617275] yes=11,no=12,missing=12
			11:[f2<-0.118235536] yes=21,no=22,missing=22
				21:[f22<3.28235865] yes=41,no=42,missing=42
					41:[f18<4.99928808] yes=77,no=78,missing=78
						77:leaf=0.123045467
						78:leaf=-0.215869382
					42:[f10<-0.313665748] yes=79,no=80,missing=80
						79:leaf=0.178811729
						80:leaf=-0.168610737
				22:[f30<4.08141088] yes=43,no=44,missing=44
					43:[f28<5.09442329] yes=81,no=82,missing=82
						81:leaf=0.176596731
						82:leaf=-0.22138536
					44:[f2<0.931457222] yes=83,no=84,missing=84
						83:leaf=-0.178160399
						84:leaf=0.153697655
			12:[f2<1.026227] yes=23,no=24,missing=24
				23:leaf=-0.181871578
				24:[f13<-0.89424783] yes=45,no=46,missing=46
					45:[f10<-0.16566354] yes=85,no=86,missing=86
						85:leaf=-0.182745829
						86:leaf=0.17820102
					46:[f12<-2.28158808] yes=87,no=88,missing=88
						87:leaf=0.136175454
						88:leaf=-0.181569353
		6:leaf=-0.181871653
booster[2]:
0:[f2<-0.255711198] yes=1,no=2,missing=2
	1:[f2<-0.534919977] yes=3,no=4,missing=4
		3:[f13<1.06103277] yes=7,no=8,missing=8
			7:[f13<-1.2953757] yes=13,no=14,missing=14
				13:[f16<-0.337711632] yes=25,no=26,missing=26
					25:[f2<-0.777882814] yes=47,no=48,missing=48
						47:leaf=0.0461772121
						48:leaf=-0.079912059
					26:[f35<1.95829558] yes=49,no=50,missing=50
						49:leaf=-0.109536506
						50:leaf=-0.166518301
				14:[f2<-0.844074786] yes=27,no=28,missing=28
					27:[f20<4.02953911] yes=51,no=52,missing=52
						51:leaf=-0.165997848
						52:leaf=0.190413684
					28:[f2<-0.800665975] yes=53,no=54,missing=54
						53:leaf=-0.104639851
						54:leaf=-0.142731011
			8:[f2<-0.837746143] yes=15,no=16,missing=16
				15:[f10<-0.16566354] yes=29,no=30,missing=30
					29:[f27<5.40617275] yes=55,no=56,missing=56
						55:leaf=-0.0984597877
						56:leaf=0.184669361
					30:[f2<-0.845541894] yes=57,no=58,missing=58
						57:leaf=-0.167720079
						58:leaf=-0.119845785
				16:[f2<-0.797789335] yes=31,no=32,missing=32
					31:[f2<-0.816746533] yes=59,no=60,missing=60
						59:leaf=-0.0554807
						60:leaf=0.089003332
					32:[f25<4.52521372] yes=61,no=62,missing=62
						61:leaf=-0.0569798425
						62:leaf=-0.186847731
		4:[f35<1.95829558] yes=9,no=10,missing=10
			9:[f18<4.99928808] yes=17,no=18,missing=18
				17:[f25<4.52521372] yes=33,no=34,missing=34
					33:[f24<4.36744452] yes=63,no=64,missing=64
						63:leaf=0.071957998
						64:leaf=-0.161454096
					34:[f2<-0.474711448] yes=65,no=66,missing=66
						65:leaf=-0.172853038
						66:leaf=-0.168301433
				18:[f2<-0.474711448] yes=35,no=36,missing=36
					35:[f13<-0.262010008] yes=67,no=68,missing=68
						67:leaf=-0.171705231
						68:leaf=-0.186588973
					36:[f13<-0.262010008] yes=69,no=70,missing=70
						69:leaf=-0.197688743
						70:leaf=-0.20625405
			10:[f22<3.28235865] yes=19,no=20,missing=20
				19:[f30<4.08141088] yes=37,no=38,missing=38
					37:[f27<5.40617275] yes=71,no=72,missing=72
						71:leaf=0.173805624
						72:leaf=-0.169199035
					38:[f2<-0.474711448] yes=73,no=74,missing=74
						73:leaf=-0.171188027
						74:leaf=-0.168257356
				20:[f2<-0.474711448] yes=39,no=40,missing=40
					39:[f13<-1.27778709] yes=75,no=76,missing=76
						75:leaf=-0.168894634
						76:leaf=-0.170909107
					40:leaf=-0.168257892
	2:[f31<7.66522503] yes=5,no=6,missing=6
		5:[f27<5.40617275] yes=11,no=12,missing=12
			11:[f2<-0.142100319] yes=21,no=22,missing=22
				21:[f22<3.28235865] yes=41,no=42,missing=42
					41:[f30<4.08141088] yes=77,no=78,missing=78
						77:leaf=0.110509552
						78:leaf=-0.229883984
					42:[f32<0.958607733] yes=79,no=80,missing=80
						79:leaf=0.163083896
						80:leaf=-0.169200882
				22:[f30<4.08141088] yes=43,no=44,missing=44
					43:[f25<4.52521372] yes=81,no=82,missing=82
						81:leaf=0.162826955
						82:leaf=-0.196979806
					44:[f2<0.931457222] yes=83,no=84,missing=84
						83:leaf=-0.16609408
						84:leaf=0.141088471
			12:[f2<1.026227] yes=23,no=24,missing=24
				23:leaf=-0.168256715
				24:[f13<-0.89424783] yes=45,no=46,missing=46
					45:[f10<-0.16566354] yes=85,no=86,missing=86
						85:leaf=-0.168929219
						86:leaf=0.164577365
					46:[f12<-2.28158808] yes=87,no=88,missing=88
						87:leaf=0.12289273
						88:leaf=-0.167513967
		6:leaf=-0.168256775
booster[3]:
0:[f2<-0.274429977] yes=1,no=2,missing=2
	1:[f2<-0.549677253] yes=3,no=4,missing=4
		3:[f13<1.06103277] yes=7,no=8,missing=8
			7:[f13<-1.31345737] yes=15,no=16,missing=16
				15:[f16<-0.408074498] yes=29,no=30,missing=30
					29:[f34<2.24811649] yes=57,no=58,missing=58
						57:leaf=0.0163968187
						58:leaf=-0.14084585
					30:[f34<2.24811649] yes=59,no=60,missing=60
						59:leaf=-0.0939391106
						60:leaf=-0.159080207
				16:[f17<5.62271261] yes=31,no=32,missing=32
					31:[f2<-0.845541894] yes=61,no=62,missing=62
						61:leaf=-0.156677917
						62:leaf=-0.125423953
					32:[f16<1.03136611] yes=63,no=64,missing=64
						63:leaf=0.0520273335
						64:leaf=-0.158825085
			8:[f16<-0.564441979] yes=17,no=18,missing=18
				17:[f2<-0.845541894] yes=33,no=34,missing=34
					33:[f10<-0.266738206] yes=65,no=66,missing=66
						65:leaf=0.0408022441
						66:leaf=-0.155456468
					34:[f24<4.36744452] yes=67,no=68,missing=68
						67:leaf=0.0468727648
						68:leaf=-0.16555801
				18:[f33<1.04770708] yes=35,no=36,missing=36
					35:[f2<-0.836595476] yes=69,no=70,missing=70
						69:leaf=-0.137374774
						70:leaf=-0.0242883805
					36:[f11<1.55114961] yes=71,no=72,missing=72
						71:leaf=-0.128021166
						72:leaf=0.00602584193
		4:[f35<1.95829558] yes=9,no=10,missing=10
			9:[f18<4.99928808] yes=19,no=20,missing=20
				19:[f25<4.52521372] yes=37,no=38,missing=38
					37:[f34<2.24811649] yes=73,no=74,missing=74
						73:leaf=0.0637968704
						74:leaf=-0.142182127
					38:[f2<-0.474711448] yes=75,no=76,missing=76
						75:leaf=-0.162312686
						76:leaf=-0.157704353
				20:[f2<-0.474711448] yes=39,no=40,missing=40
					39:[f13<-0.262010008] yes=77,no=78,missing=78
						77:leaf=-0.162572518
						78:leaf=-0.170192465
					40:[f13<-0.262010008] yes=79,no=80,missing=80
						79:leaf=-0.180163845
						80:leaf=-0.18645075
			10:[f22<3.28235865] yes=21,no=22,missing=22
				21:[f30<4.08141088] yes=41,no=42,missing=42
					41:[f27<5.40617275] yes=81,no=82,missing=82
						81:leaf=0.167101189
						82:leaf=-0.159001768
					42:[f2<-0.474711448] yes=83,no=84,missing=84
						83:leaf=-0.160545796
						84:leaf=-0.157686561
				22:[f2<-0.534919977] yes=43,no=44,missing=44
					43:[f16<-0.337711632] yes=85,no=86,missing=86
						85:leaf=-0.164337322
						86:leaf=-0.161482245
					44:[f2<-0.474711448] yes=87,no=88,missing=88
						87:leaf=-0.159195721
						88:leaf=-0.157687068
	2:[f2<-0.118235536] yes=5,no=6,missing=6
		5:[f35<1.95829558] yes=11,no=12,missing=12
			11:[f34<2.24811649] yes=23,no=24,missing=24
				23:[f18<4.99928808] yes=45,no=46,missing=46
					45:[f25<4.52521372] yes=89,no=90,missing=90
						89:leaf=0.135443643
						90:leaf=-0.224585965
					46:[f2<-0.255711198] yes=91,no=92,missing=92
						91:leaf=-0.185538873
						92:leaf=-0.205198333
				24:[f29<3.53301716] yes=47,no=48,missing=48
					47:[f26<4.99813557] yes=93,no=94,missing=94
						93:leaf=0.185005903
						94:leaf=-0.21563068
					48:[f2<-0.142100319] yes=95,no=96,missing=96
						95:leaf=-0.213728786
						96:leaf=-0.261531353
			12:[f10<-0.313665748] yes=25,no=26,missing=26
				25:[f30<4.08141088] yes=49,no=50,missing=50
					49:[f27<5.40617275] yes=97,no=98,missing=98
						97:leaf=0.162492186
						98:leaf=-0.157642201
					50:[f2<-0.255711198] yes=99,no=100,missing=100
						99:leaf=-0.157541618
						100:leaf=-0.198505223
				26:[f32<0.958607733] yes=51,no=52,missing=52
					51:[f27<5.40617275] yes=101,no=102,missing=102
						101:leaf=0.097885035
						102:leaf=-0.157646596
					52:[f22<3.28235865] yes=103,no=104,missing=104
						103:leaf=-0.109216049
						104:leaf=-0.159052581
		6:[f31<7.66522503] yes=13,no=14,missing=14
			13:[f27<5.40617275] yes=27,no=28,missing=28
				27:[f30<4.08141088] yes=53,no=54,missing=54
					53:[f23<5.27439022] yes=105,no=106,missing=106
						105:leaf=0.152544305
						106:leaf=-0.270445824
					54:[f2<0.963481903] yes=107,no=108,missing=108
						107:leaf=-0.148609802
						108:leaf=0.131428584
				28:[f2<1.026227] yes=55,no=56,missing=56
					55:leaf=-0.15768522
					56:[f13<-0.89424783] yes=109,no=110,missing=110
						109:leaf=0.116673626
						110:leaf=-0.134643719
			14:leaf=-0.15768598
booster[4]:
0:[f2<-0.235182479] yes=1,no=2,missing=2
	1:[f2<-0.453222781] yes=3,no=4,missing=4
		3:[f13<1.06103277] yes=7,no=8,missing=8
			7:[f13<-1.2245208] yes=15,no=16,missing=16
				15:[f35<1.95829558] yes=27,no=28,missing=28
					27:[f34<2.24811649] yes=47,no=48,missing=48
						47:leaf=0.0131096486
						48:leaf=-0.140403852
					28:[f10<-0.154834107] yes=49,no=50,missing=50
						49:leaf=-0.156774744
						50:leaf=-0.13535355
				16:[f2<-0.844074786] yes=29,no=30,missing=30
					29:[f20<4.02953911] yes=51,no=52,missing=52
						51:leaf=-0.146930471
						52:leaf=0.187710255
					30:[f24<4.36744452] yes=53,no=54,missing=54
						53:leaf=-0.106864728
						54:leaf=-0.157400712
			8:[f24<4.36744452] yes=17,no=18,missing=18
				17:[f2<-0.837746143] yes=31,no=32,missing=32
					31:[f10<-0.16566354] yes=55,no=56,missing=56
						55:leaf=-0.0512531288
						56:leaf=-0.133826464
					32:[f18<4.99928808] yes=57,no=58,missing=58
						57:leaf=0.00675399229
						58:leaf=-0.169979006
				18:[f16<-0.564441979] yes=33,no=34,missing=34
					33:[f2<-0.549677253] yes=59,no=60,missing=60
						59:leaf=-0.155942053
						60:leaf=-0.164139286
					34:[f2<-0.837746143] yes=61,no=62,missing=62
						61:leaf=-0.157436118
						62:leaf=-0.167238325
		4:[f35<1.95829558] yes=9,no=10,missing=10
			9:[f23<5.27439022] yes=19,no=20,missing=20
				19:[f18<4.99928808] yes=35,no=36,missing=36
					35:[f28<5.09442329] yes=63,no=64,missing=64
						63:leaf=0.0782987028
						64:leaf=-0.22366488
					36:[f2<-0.255711198] yes=65,no=66,missing=66
						65:leaf=-0.17101571
						66:leaf=-0.184158832
				20:[f2<-0.255711198] yes=37,no=38,missing=38
					37:[f2<-0.274429977] yes=67,no=68,missing=68
						67:leaf=-0.221726373
						68:leaf=-0.230701596
					38:leaf=-0.266047806
			10:[f22<3.28235865] yes=21,no=22,missing=22
				21:[f30<4.08141088] yes=39,no=40,missing=40
					39:[f27<5.40617275] yes=69,no=70,missing=70
						69:leaf=0.150016949
						70:leaf=-0.149274394
					40:[f2<-0.255711198] yes=71,no=72,missing=72
						71:leaf=-0.149437666
						72:leaf=-0.193465874
				22:leaf=-0.149328589
	2:[f31<7.66522503] yes=5,no=6,missing=6
		5:[f27<5.40617275] yes=11,no=12,missing=12
			11:[f2<-0.0762362778] yes=23,no=24,missing=24
				23:[f34<2.24811649] yes=41,no=42,missing=42
					41:[f18<4.99928808] yes=73,no=74,missing=74
						73:leaf=0.10509336
						74:leaf=-0.207744285
					42:[f29<3.53301716] yes=75,no=76,missing=76
						75:leaf=-0.0643847659
						76:leaf=-0.221373275
				24:[f30<4.08141088] yes=43,no=44,missing=44
					43:[f19<5.13780785] yes=77,no=78,missing=78
						77:leaf=0.144540831
						78:leaf=-0.298527539
					44:[f2<0.931457222] yes=79,no=80,missing=80
						79:leaf=-0.145386681
						80:leaf=0.121945322
			12:[f2<1.026227] yes=25,no=26,missing=26
				25:leaf=-0.149624109
				26:[f13<-1.11522734] yes=45,no=46,missing=46
					45:[f10<-0.16566354] yes=81,no=82,missing=82
						81:leaf=-0.164672375
						82:leaf=0.147338316
					46:[f5<1.15594852] yes=83,no=84,missing=84
						83:leaf=-0.150450751
						84:leaf=-0.00231078523
		6:[f2<-0.118235536] yes=13,no=14,missing=14
			13:leaf=-0.165852889
			14:leaf=-0.149270311
booster[5]:
0:[f2<-0.235182479] yes=1,no=2,missing=2
	1:[f2<-0.556408644] yes=3,no=4,missing=4
		3:[f17<5.62271261] yes=7,no=8,missing=8
			7:[f2<-0.845541894] yes=15,no=16,missing=16
				15:[f20<4.02953911] yes=27,no=28,missing=28
					27:[f13<1.06103277] yes=49,no=50,missing=50
						49:leaf=-0.142873555
						50:leaf=-0.126541644
					28:[f8<-0.123296097] yes=51,no=52,missing=52
						51:leaf=0.192580506
						52:leaf=0.252228737
				16:[f2<-0.797789335] yes=29,no=30,missing=30
					29:[f20<4.02953911] yes=53,no=54,missing=54
						53:leaf=-0.0602787845
						54:leaf=0.217015535
					30:[f20<4.02953911] yes=55,no=56,missing=56
						55:leaf=-0.0991368145
						56:leaf=-0.159824207
			8:[f16<1.06212485] yes=17,no=18,missing=18
				17:[f16<-0.466068894] yes=31,no=32,missing=32
					31:[f24<4.36744452] yes=57,no=58,missing=58
						57:leaf=0.169940546
						58:leaf=-0.161601931
					32:[f2<-0.837746143] yes=59,no=60,missing=60
						59:leaf=-0.117353968
						60:leaf=0.0826964602
				18:[f3<1.08810389] yes=33,no=34,missing=34
					33:[f16<1.23741102] yes=61,no=62,missing=62
						61:leaf=-0.135301635
						62:leaf=-0.155156612
					34:[f11<-0.710928023] yes=63,no=64,missing=64
						63:leaf=0.128898159
						64:leaf=-0.132389039
		4:[f35<1.95829558] yes=9,no=10,missing=10
			9:[f13<-0.280378968] yes=19,no=20,missing=20
				19:[f34<2.24811649] yes=35,no=36,missing=36
					35:[f19<5.13780785] yes=65,no=66,missing=66
						65:leaf=0.147779956
						66:leaf=-0.105969064
					36:[f26<4.99813557] yes=67,no=68,missing=68
						67:leaf=-0.0451302491
						68:leaf=-0.163969263
				20:[f23<5.27439022] yes=37,no=38,missing=38
					37:[f28<5.09442329] yes=69,no=70,missing=70
						69:leaf=0.00895973947
						70:leaf=-0.193867713
					38:[f2<-0.534919977] yes=71,no=72,missing=72
						71:leaf=-0.162172303
						72:leaf=-0.198433235
			10:[f22<3.28235865] yes=21,no=22,missing=22
				21:[f30<4.08141088] yes=39,no=40,missing=40
					39:[f27<5.40617275] yes=73,no=74,missing=74
						73:leaf=0.157815978
						74:leaf=-0.144542858
					40:[f2<-0.255711198] yes=75,no=76,missing=76
						75:leaf=-0.144867808
						76:leaf=-0.177069351
				22:[f2<-0.534919977] yes=41,no=42,missing=42
					41:[f2<-0.549677253] yes=77,no=78,missing=78
						77:leaf=-0.150131971
						78:leaf=-0.147036836
					42:[f2<-0.474711448] yes=79,no=80,missing=80
						79:leaf=-0.144621387
						80:leaf=-0.142628387
	2:[f31<7.66522503] yes=5,no=6,missing=6
		5:[f27<5.40617275] yes=11,no=12,missing=12
			11:[f2<-0.0964327306] yes=23,no=24,missing=24
				23:[f34<2.24811649] yes=43,no=44,missing=44
					43:[f30<4.08141088] yes=81,no=82,missing=82
						81:leaf=0.0932756439
						82:leaf=-0.194840387
					44:[f26<4.99813557] yes=83,no=84,missing=84
						83:leaf=-0.0454594679
						84:leaf=-0.204160526
				24:[f30<4.08141088] yes=45,no=46,missing=46
					45:[f28<5.09442329] yes=85,no=86,missing=86
						85:leaf=0.137224063
						86:leaf=-0.253403664
					46:[f2<0.963481903] yes=87,no=88,missing=88
						87:leaf=-0.133455768
						88:leaf=0.114990428
			12:[f2<1.026227] yes=25,no=26,missing=26
				25:leaf=-0.142728373
				26:[f13<-1.11522734] yes=47,no=48,missing=48
					47:[f10<-0.16566354] yes=89,no=90,missing=90
						89:leaf=-0.154842123
						90:leaf=0.139982179
					48:[f12<-2.28158808] yes=91,no=92,missing=92
						91:leaf=0.113562241
						92:leaf=-0.123665206
		6:[f2<-0.118235536] yes=13,no=14,missing=14
			13:leaf=-0.155749619
			14:leaf=-0.142437965
booster[6]:
0:[f2<-0.274429977] yes=1,no=2,missing=2
	1:[f2<-0.563456476] yes=3,no=4,missing=4
		3:[f2<-0.845541894] yes=7,no=8,missing=8
			7:[f20<4.02953911] yes=15,no=16,missing=16
				15:[f13<1.06103277] yes=29,no=30,missing=30
					29:[f2<-0.84712404] yes=57,no=58,missing=58
						57:leaf=-0.137877092
						58:leaf=-0.123386815
					30:[f10<-0.18010278] yes=59,no=60,missing=60
						59:leaf=-0.064236559
						60:leaf=-0.137728572
				16:[f16<-0.252319217] yes=31,no=32,missing=32
					31:[f8<-0.123296097] yes=61,no=62,missing=62
						61:leaf=0.172556505
						62:leaf=0.218183547
					32:leaf=0.222094223
			8:[f2<-0.797789335] yes=17,no=18,missing=18
				17:[f20<4.02953911] yes=33,no=34,missing=34
					33:[f2<-0.836595476] yes=63,no=64,missing=64
						63:leaf=-0.0959028602
						64:leaf=-0.022592267
					34:[f16<-0.403826743] yes=65,no=66,missing=66
						65:leaf=0.174531743
						66:leaf=0.22441557
				18:[f20<4.02953911] yes=35,no=36,missing=36
					35:[f13<-1.17022383] yes=67,no=68,missing=68
						67:leaf=-0.042425435
						68:leaf=-0.0999204442
					36:[f13<-1.27778709] yes=69,no=70,missing=70
						69:leaf=-0.164687335
						70:leaf=-0.142776832
		4:[f35<1.95829558] yes=9,no=10,missing=10
			9:[f24<4.36744452] yes=19,no=20,missing=20
				19:[f25<4.52521372] yes=37,no=38,missing=38
					37:[f18<4.99928808] yes=71,no=72,missing=72
						71:leaf=0.0551639386
						72:leaf=-0.158027321
					38:[f13<1.06103277] yes=73,no=74,missing=74
						73:leaf=-0.149364263
						74:leaf=-0.158550262
				20:[f7<-1.57878613] yes=39,no=40,missing=40
					39:[f2<-0.327567041] yes=75,no=76,missing=76
						75:leaf=-0.159373403
						76:leaf=0.141422823
					40:[f2<-0.292370677] yes=77,no=78,missing=78
						77:leaf=-0.159221277
						78:leaf=-0.107696436
			10:[f22<3.28235865] yes=21,no=22,missing=22
				21:[f30<4.08141088] yes=41,no=42,missing=42
					41:[f27<5.40617275] yes=79,no=80,missing=80
						79:leaf=0.154104382
						80:leaf=-0.139085457
					42:[f13<1.06103277] yes=81,no=82,missing=82
						81:leaf=-0.138316914
						82:leaf=-0.146801859
				22:[f2<-0.549677253] yes=43,no=44,missing=44
					43:[f16<-0.408074498] yes=83,no=84,missing=84
						83:leaf=-0.147252545
						84:leaf=-0.143211469
					44:[f2<-0.474711448] yes=85,no=86,missing=86
						85:leaf=-0.139129907
						86:leaf=-0.136949271
	2:[f2<-0.118235536] yes=5,no=6,missing=6
		5:[f35<1.95829558] yes=11,no=12,missing=12
			11:[f34<2.24811649] yes=23,no=24,missing=24
				23:[f25<4.52521372] yes=45,no=46,missing=46
					45:[f18<4.99928808] yes=87,no=88,missing=88
						87:leaf=0.114450358
						88:leaf=-0.173576027
					46:[f2<-0.255711198] yes=89,no=90,missing=90
						89:leaf=-0.15075849
						90:leaf=-0.231517464
				24:[f29<3.53301716] yes=47,no=48,missing=48
					47:[f26<4.99813557] yes=91,no=92,missing=92
						91:leaf=0.175686389
						92:leaf=-0.17636247
					48:[f2<-0.235182479] yes=93,no=94,missing=94
						93:leaf=-0.197529197
						94:leaf=-0.175343394
			12:[f10<-0.313665748] yes=25,no=26,missing=26
				25:[f30<4.08141088] yes=49,no=50,missing=50
					49:[f27<5.40617275] yes=95,no=96,missing=96
						95:leaf=0.142154172
						96:leaf=-0.136722788
					50:[f2<-0.255711198] yes=97,no=98,missing=98
						97:leaf=-0.136543319
						98:leaf=-0.171661377
				26:[f32<0.958607733] yes=51,no=52,missing=52
					51:[f30<4.08141088] yes=99,no=100,missing=100
						99:leaf=0.0674739778
						100:leaf=-0.189301208
					52:[f22<3.28235865] yes=101,no=102,missing=102
						101:leaf=-0.0924892575
						102:leaf=-0.149618313
		6:[f31<7.66522503] yes=13,no=14,missing=14
			13:[f27<5.40617275] yes=27,no=28,missing=28
				27:[f25<4.52521372] yes=53,no=54,missing=54
					53:[f30<4.08141088] yes=103,no=104,missing=104
						103:leaf=0.130982324
						104:leaf=0.0815508962
					54:[f2<-0.0762362778] yes=105,no=106,missing=106
						105:leaf=-0.215888128
						106:leaf=-0.223836735
				28:[f2<1.026227] yes=55,no=56,missing=56
					55:leaf=-0.13677901
					56:[f13<-0.89424783] yes=107,no=108,missing=108
						107:leaf=0.0983177349
						108:leaf=-0.114054322
			14:leaf=-0.136803597
booster[7]:
0:[f2<-0.235182479] yes=1,no=2,missing=2
	1:[f2<-0.50275892] yes=3,no=4,missing=4
		3:[f13<1.06103277] yes=7,no=8,missing=8
			7:[f13<-1.2245208] yes=15,no=16,missing=16
				15:[f35<1.95829558] yes=27,no=28,missing=28
					27:[f34<2.24811649] yes=51,no=52,missing=52
						51:leaf=0.0199294742
						52:leaf=-0.121178858
					28:[f33<1.04770708] yes=53,no=54,missing=54
						53:leaf=-0.116083108
						54:leaf=-0.141501755
				16:[f34<2.24811649] yes=29,no=30,missing=30
					29:[f24<4.36744452] yes=55,no=56,missing=56
						55:leaf=-0.0911514089
						56:leaf=-0.140611589
					30:[f16<-1.75851464] yes=57,no=58,missing=58
						57:leaf=0.0577592738
						58:leaf=-0.136831447
			8:[f24<4.36744452] yes=17,no=18,missing=18
				17:[f2<-0.837746143] yes=31,no=32,missing=32
					31:[f10<-0.16566354] yes=59,no=60,missing=60
						59:leaf=-0.0306833182
						60:leaf=-0.114576094
					32:[f18<4.99928808] yes=61,no=62,missing=62
						61:leaf=0.0182202887
						62:leaf=-0.150167614
				18:[f2<-0.794596195] yes=33,no=34,missing=34
					33:[f2<-0.836595476] yes=63,no=64,missing=64
						63:leaf=-0.14068386
						64:leaf=-0.158387288
					34:[f16<-0.564441979] yes=65,no=66,missing=66
						65:leaf=-0.138835713
						66:leaf=-0.144775704
		4:[f35<1.95829558] yes=9,no=10,missing=10
			9:[f19<5.13780785] yes=19,no=20,missing=20
				19:[f34<2.24811649] yes=35,no=36,missing=36
					35:[f23<5.27439022] yes=67,no=68,missing=68
						67:leaf=0.0640076175
						68:leaf=-0.186642081
					36:[f29<3.53301716] yes=69,no=70,missing=70
						69:leaf=-0.0755753964
						70:leaf=-0.199256927
				20:[f2<-0.440996975] yes=37,no=38,missing=38
					37:[f5<1.50823724] yes=71,no=72,missing=72
						71:leaf=-0.135988593
						72:leaf=0.041405268
					38:[f2<-0.255711198] yes=73,no=74,missing=74
						73:leaf=-0.235284969
						74:leaf=-0.298582643
			10:[f22<3.28235865] yes=21,no=22,missing=22
				21:[f30<4.08141088] yes=39,no=40,missing=40
					39:[f27<5.40617275] yes=75,no=76,missing=76
						75:leaf=0.135880113
						76:leaf=-0.13284646
					40:[f2<-0.255711198] yes=77,no=78,missing=78
						77:leaf=-0.133161962
						78:leaf=-0.157373771
				22:[f2<-0.453222781] yes=41,no=42,missing=42
					41:[f13<-1.2245208] yes=79,no=80,missing=80
						79:leaf=-0.132072285
						80:leaf=-0.134122357
					42:leaf=-0.132062778
	2:[f31<7.66522503] yes=5,no=6,missing=6
		5:[f27<5.40617275] yes=11,no=12,missing=12
			11:[f23<5.27439022] yes=23,no=24,missing=24
				23:[f19<5.13780785] yes=43,no=44,missing=44
					43:[f28<5.09442329] yes=81,no=82,missing=82
						81:leaf=0.121652678
						82:leaf=-0.282028973
					44:[f2<-0.0762362778] yes=83,no=84,missing=84
						83:leaf=-0.338108987
						84:leaf=-0.2925978
				24:[f2<-0.118235536] yes=45,no=46,missing=46
					45:[f2<-0.142100319] yes=85,no=86,missing=86
						85:leaf=-0.327099293
						86:leaf=-0.352823466
					46:[f2<-0.0762362778] yes=87,no=88,missing=88
						87:leaf=-0.284686208
						88:leaf=-0.296507448
			12:[f2<1.026227] yes=25,no=26,missing=26
				25:[f2<-0.118235536] yes=47,no=48,missing=48
					47:[f10<-0.313665748] yes=89,no=90,missing=90
						89:leaf=-0.132038563
						90:leaf=-0.136572495
					48:leaf=-0.132076725
				26:[f13<-0.504229784] yes=49,no=50,missing=50
					49:[f10<-0.16566354] yes=91,no=92,missing=92
						91:leaf=-0.148991406
						92:leaf=0.132162467
					50:[f12<-2.25829053] yes=93,no=94,missing=94
						93:leaf=-0.186215326
						94:leaf=-0.1363388
		6:[f2<-0.118235536] yes=13,no=14,missing=14
			13:leaf=-0.153483093
			14:leaf=-0.132097572
booster[8]:
0:[f2<-0.214232355] yes=1,no=2,missing=2
	1:[f2<-0.563456476] yes=3,no=4,missing=4
		3:[f2<-0.845541894] yes=7,no=8,missing=8
			7:[f20<4.02953911] yes=15,no=16,missing=16
				15:[f13<1.06103277] yes=27,no=28,missing=28
					27:[f2<-0.84712404] yes=51,no=52,missing=52
						51:leaf=-0.129365742
						52:leaf=-0.113604926
					28:[f10<-0.18010278] yes=53,no=54,missing=54
						53:leaf=-0.0556904189
						54:leaf=-0.128786609
				16:[f16<-0.252319217] yes=29,no=30,missing=30
					29:[f8<-0.123296097] yes=55,no=56,missing=56
						55:leaf=0.160154685
						56:leaf=0.193102166
					30:leaf=0.195835516
			8:[f2<-0.797789335] yes=17,no=18,missing=18
				17:[f20<4.02953911] yes=31,no=32,missing=32
					31:[f2<-0.836595476] yes=57,no=58,missing=58
						57:leaf=-0.0827218369
						58:leaf=-0.0138938297
					32:[f16<-0.403826743] yes=59,no=60,missing=60
						59:leaf=0.161695078
						60:leaf=0.200696155
				18:[f20<4.02953911] yes=33,no=34,missing=34
					33:[f25<4.52521372] yes=61,no=62,missing=62
						61:leaf=-0.0705598071
						62:leaf=-0.140818641
					34:[f13<-1.27778709] yes=63,no=64,missing=64
						63:leaf=-0.156096771
						64:leaf=-0.134002209
		4:[f35<1.95829558] yes=9,no=10,missing=10
			9:[f28<5.09442329] yes=19,no=20,missing=20
				19:[f25<4.52521372] yes=35,no=36,missing=36
					35:[f34<2.24811649] yes=65,no=66,missing=66
						65:leaf=0.0570892058
						66:leaf=-0.11687284
					36:[f2<-0.255711198] yes=67,no=68,missing=68
						67:leaf=-0.144745067
						68:leaf=-0.216132686
				20:[f2<-0.534919977] yes=37,no=38,missing=38
					37:[f13<1.06103277] yes=69,no=70,missing=70
						69:leaf=-0.145209372
						70:leaf=-0.180534199
					38:[f2<-0.255711198] yes=71,no=72,missing=72
						71:leaf=-0.188791677
						72:leaf=-0.25137794
			10:[f22<3.28235865] yes=21,no=22,missing=22
				21:[f30<4.08141088] yes=39,no=40,missing=40
					39:[f27<5.40617275] yes=73,no=74,missing=74
						73:leaf=0.144934148
						74:leaf=-0.130468175
					40:[f2<-0.235182479] yes=75,no=76,missing=76
						75:leaf=-0.13051188
						76:leaf=-0.185236678
				22:[f2<-0.235182479] yes=41,no=42,missing=42
					41:[f2<-0.534919977] yes=77,no=78,missing=78
						77:leaf=-0.133346781
						78:leaf=-0.128867775
					42:[f10<-0.16566354] yes=79,no=80,missing=80
						79:leaf=-0.17779991
						80:leaf=-0.15906322
	2:[f31<7.66522503] yes=5,no=6,missing=6
		5:[f27<5.40617275] yes=11,no=12,missing=12
			11:[f25<4.52521372] yes=23,no=24,missing=24
				23:[f23<5.27439022] yes=43,no=44,missing=44
					43:[f18<4.99928808] yes=81,no=82,missing=82
						81:leaf=0.11853236
						82:leaf=-0.0251358952
					44:[f2<-0.118235536] yes=83,no=84,missing=84
						83:leaf=-0.265986532
						84:leaf=-0.244454548
				24:[f2<-0.142100319] yes=45,no=46,missing=46
					45:leaf=-0.226594597
					46:[f2<-0.118235536] yes=85,no=86,missing=86
						85:leaf=-0.166279897
						86:leaf=-0.210165381
			12:[f2<1.026227] yes=25,no=26,missing=26
				25:[f2<-0.118235536] yes=47,no=48,missing=48
					47:leaf=-0.131226867
					48:leaf=-0.128107399
				26:[f13<-0.504229784] yes=49,no=50,missing=50
					49:[f10<-0.16566354] yes=87,no=88,missing=88
						87:leaf=-0.142314598
						88:leaf=0.127013251
					50:[f12<-2.25829053] yes=89,no=90,missing=90
						89:leaf=-0.171913669
						90:leaf=-0.131730795
		6:[f2<-0.118235536] yes=13,no=14,missing=14
			13:leaf=-0.145779282
			14:leaf=-0.128125235
booster[9]:
0:[f2<-0.191101372] yes=1,no=2,missing=2
	1:[f35<1.95829558] yes=3,no=4,missing=4
		3:[f2<-0.590755999] yes=7,no=8,missing=8
			7:[f34<2.24811649] yes=15,no=16,missing=16
				15:[f13<-0.691158712] yes=27,no=28,missing=28
					27:[f20<4.02953911] yes=51,no=52,missing=52
						51:leaf=0.16169408
						52:leaf=-0.0827042982
					28:[f13<1.06103277] yes=53,no=54,missing=54
						53:leaf=-0.0908258632
						54:leaf=-0.0172685478
				16:[f13<-1.34461296] yes=29,no=30,missing=30
					29:[f17<5.62271261] yes=55,no=56,missing=56
						55:leaf=-0.109876826
						56:leaf=0.092140995
					30:[f16<-1.75851464] yes=57,no=58,missing=58
						57:leaf=0.0520794988
						58:leaf=-0.129275784
			8:[f24<4.36744452] yes=17,no=18,missing=18
				17:[f18<4.99928808] yes=31,no=32,missing=32
					31:[f34<2.24811649] yes=59,no=60,missing=60
						59:leaf=0.0578407459
						60:leaf=-0.111657202
					32:[f2<-0.50275892] yes=61,no=62,missing=62
						61:leaf=-0.141469344
						62:leaf=-0.159763142
				18:[f13<1.05006289] yes=33,no=34,missing=34
					33:[f2<-0.255711198] yes=63,no=64,missing=64
						63:leaf=-0.149938628
						64:leaf=-0.342024058
					34:[f2<-0.327567041] yes=65,no=66,missing=66
						65:leaf=-0.145930812
						66:leaf=0.0530236065
		4:[f13<1.06103277] yes=9,no=10,missing=10
			9:[f22<3.28235865] yes=19,no=20,missing=20
				19:[f30<4.08141088] yes=35,no=36,missing=36
					35:[f27<5.40617275] yes=67,no=68,missing=68
						67:leaf=0.23454459
						68:leaf=-0.116368771
					36:[f2<-0.845541894] yes=69,no=70,missing=70
						69:leaf=-0.126706645
						70:leaf=-0.135315999
				20:[f2<-0.235182479] yes=37,no=38,missing=38
					37:[f2<-0.556408644] yes=71,no=72,missing=72
						71:leaf=-0.135103196
						72:leaf=-0.125904948
					38:[f2<-0.214232355] yes=73,no=74,missing=74
						73:leaf=-0.15064685
						74:leaf=-0.166494846
			10:[f10<-0.194542021] yes=21,no=22,missing=22
				21:[f2<-0.556408644] yes=39,no=40,missing=40
					39:[f16<-0.564441979] yes=75,no=76,missing=76
						75:leaf=0.20878987
						76:leaf=0.243466377
					40:[f2<-0.534919977] yes=77,no=78,missing=78
						77:leaf=0.163571045
						78:leaf=0.127539515
				22:[f30<4.08141088] yes=41,no=42,missing=42
					41:[f27<5.40617275] yes=79,no=80,missing=80
						79:leaf=0.0922813788
						80:leaf=-0.08034987
					42:[f2<-0.837746143] yes=81,no=82,missing=82
						81:leaf=-0.130741805
						82:leaf=-0.160466298
	2:[f31<7.66522503] yes=5,no=6,missing=6
		5:[f27<5.40617275] yes=11,no=12,missing=12
			11:[f30<4.08141088] yes=23,no=24,missing=24
				23:[f19<5.13780785] yes=43,no=44,missing=44
					43:[f18<4.99928808] yes=83,no=84,missing=84
						83:leaf=0.117367648
						84:leaf=-0.0160419811
					44:[f2<-0.0762362778] yes=85,no=86,missing=86
						85:leaf=-0.29650721
						86:leaf=-0.261825651
				24:[f2<0.963481903] yes=45,no=46,missing=46
					45:[f2<0.866720319] yes=87,no=88,missing=88
						87:leaf=-0.158621848
						88:leaf=-0.0388855003
					46:[f2<2.45226288] yes=89,no=90,missing=90
						89:leaf=0.103738628
						90:leaf=-0.216107801
			12:[f2<1.026227] yes=25,no=26,missing=26
				25:[f2<-0.118235536] yes=47,no=48,missing=48
					47:leaf=-0.127360553
					48:leaf=-0.12472707
				26:[f8<-0.28832978] yes=49,no=50,missing=50
					49:[f10<-0.154834107] yes=91,no=92,missing=92
						91:leaf=-0.13745971
						92:leaf=0.100542329
					50:[f13<-1.2245208] yes=93,no=94,missing=94
						93:leaf=-0.198904574
						94:leaf=-0.130179703
		6:[f2<-0.118235536] yes=13,no=14,missing=14
			13:leaf=-0.139476284
			14:leaf=-0.12474256
booster[10]:
0:[f2<-0.191101372] yes=1,no=2,missing=2
	1:[f35<1.95829558] yes=3,no=4,missing=4
		3:[f2<-0.58565551] yes=7,no=8,missing=8
			7:[f34<2.24811649] yes=15,no=16,missing=16
				15:[f13<-0.523187757] yes=27,no=28,missing=28
					27:[f20<4.02953911] yes=51,no=52,missing=52
						51:leaf=0.142833486
						52:leaf=-0.0802970678
					28:[f13<1.02797842] yes=53,no=54,missing=54
						53:leaf=-0.0884817764
						54:leaf=-0.0181756634
				16:[f13<-1.27778709] yes=29,no=30,missing=30
					29:[f26<4.99813557] yes=55,no=56,missing=56
						55:leaf=-0.0864961743
						56:leaf=-0.137133658
					30:[f16<-1.75851464] yes=57,no=58,missing=58
						57:leaf=0.0486843288
						58:leaf=-0.125592798
			8:[f23<5.27439022] yes=17,no=18,missing=18
				17:[f25<4.52521372] yes=31,no=32,missing=32
					31:[f24<4.36744452] yes=59,no=60,missing=60
						59:leaf=0.0498329327
						60:leaf=-0.133296117
					32:[f2<-0.255711198] yes=61,no=62,missing=62
						61:leaf=-0.140731901
						62:leaf=-0.201273516
				18:[f2<-0.534919977] yes=33,no=34,missing=34
					33:[f13<1.06103277] yes=63,no=64,missing=64
						63:leaf=-0.145054922
						64:leaf=-0.180606887
					34:[f2<-0.235182479] yes=65,no=66,missing=66
						65:leaf=-0.182008222
						66:leaf=-0.258532703
		4:[f13<1.06103277] yes=9,no=10,missing=10
			9:[f22<3.28235865] yes=19,no=20,missing=20
				19:[f30<4.08141088] yes=35,no=36,missing=36
					35:[f27<5.40617275] yes=67,no=68,missing=68
						67:leaf=0.216531739
						68:leaf=-0.111704074
					36:[f2<-0.235182479] yes=69,no=70,missing=70
						69:leaf=-0.127199948
						70:leaf=-0.172713146
				20:[f2<-0.235182479] yes=37,no=38,missing=38
					37:[f2<-0.556408644] yes=71,no=72,missing=72
						71:leaf=-0.130678445
						72:leaf=-0.122844815
					38:[f2<-0.214232355] yes=73,no=74,missing=74
						73:leaf=-0.143582597
						74:leaf=-0.156294808
			10:[f10<-0.16566354] yes=21,no=22,missing=22
				21:[f30<4.08141088] yes=39,no=40,missing=40
					39:[f2<-0.556408644] yes=75,no=76,missing=76
						75:leaf=0.198324665
						76:leaf=0.128185019
					40:[f2<-0.839155734] yes=77,no=78,missing=78
						77:leaf=-0.133642867
						78:leaf=-0.170196384
				22:[f30<4.08141088] yes=41,no=42,missing=42
					41:[f27<5.40617275] yes=79,no=80,missing=80
						79:leaf=0.0826433226
						80:leaf=-0.0770486221
					42:[f2<-0.837746143] yes=81,no=82,missing=82
						81:leaf=-0.127003759
						82:leaf=-0.152057827
	2:[f31<7.66522503] yes=5,no=6,missing=6
		5:[f27<5.40617275] yes=11,no=12,missing=12
			11:[f30<4.08141088] yes=23,no=24,missing=24
				23:[f25<4.52521372] yes=43,no=44,missing=44
					43:[f28<5.09442329] yes=83,no=84,missing=84
						83:leaf=0.113080494
						84:leaf=-0.260565728
					44:[f2<-0.142100319] yes=85,no=86,missing=86
						85:leaf=-0.213484764
						86:leaf=-0.195532173
				24:[f2<0.931457222] yes=45,no=46,missing=46
					45:[f5<-1.608163] yes=87,no=88,missing=88
						87:leaf=-0.0287969857
						88:leaf=-0.150007114
					46:[f2<2.45226288] yes=89,no=90,missing=90
						89:leaf=0.0981503129
						90:leaf=-0.174264356
			12:[f2<1.026227] yes=25,no=26,missing=26
				25:leaf=-0.122258149
				26:[f13<-0.504229784] yes=49,no=50,missing=50
					49:[f10<-0.16566354] yes=91,no=92,missing=92
						91:leaf=-0.131768227
						92:leaf=0.119525053
					50:[f12<-2.25829053] yes=93,no=94,missing=94
						93:leaf=-0.159897462
						94:leaf=-0.12713401
		6:[f2<-0.118235536] yes=13,no=14,missing=14
			13:leaf=-0.134272069
			14:leaf=-0.121840373
booster[11]:
0:[f2<-0.191101372] yes=1,no=2,missing=2
	1:[f2<-0.845541894] yes=3,no=4,missing=4
		3:[f20<4.02953911] yes=7,no=8,missing=8
			7:[f13<1.06103277] yes=15,no=16,missing=16
				15:[f2<-0.84712404] yes=27,no=28,missing=28
					27:[f21<7.28345203] yes=47,no=48,missing=48
						47:leaf=-0.120768189
						48:leaf=-0.00234611682
					28:[f27<5.40617275] yes=49,no=50,missing=50
						49:leaf=-0.110435598
						50:leaf=-0.0437257104
				16:[f10<-0.18010278] yes=29,no=30,missing=30
					29:[f10<-0.194542021] yes=51,no=52,missing=52
						51:leaf=-0.0650247559
						52:leaf=0.278297901
					30:[f2<-0.84712404] yes=53,no=54,missing=54
						53:leaf=-0.122920513
						54:leaf=-0.103997283
			8:[f16<-0.252319217] yes=17,no=18,missing=18
				17:[f8<-0.123296097] yes=31,no=32,missing=32
					31:[f13<-1.37206137] yes=55,no=56,missing=56
						55:leaf=0.161774725
						56:leaf=0.141764417
					32:leaf=0.190335497
				18:leaf=0.19273755
		4:[f24<4.36744452] yes=9,no=10,missing=10
			9:[f35<1.95829558] yes=19,no=20,missing=20
				19:[f18<4.99928808] yes=33,no=34,missing=34
					33:[f34<2.24811649] yes=57,no=58,missing=58
						57:leaf=-0.00136854558
						58:leaf=-0.110199034
					34:[f13<-1.2245208] yes=59,no=60,missing=60
						59:leaf=-0.180938855
						60:leaf=-0.136799753
				20:[f13<0.20476003] yes=35,no=36,missing=36
					35:[f22<3.28235865] yes=61,no=62,missing=62
						61:leaf=-0.0941788852
						62:leaf=-0.124699436
					36:[f10<-0.16566354] yes=63,no=64,missing=64
						63:leaf=0.201703101
						64:leaf=-0.0957787186
			10:[f2<-0.235182479] yes=21,no=22,missing=22
				21:[f2<-0.292370677] yes=37,no=38,missing=38
					37:[f2<-0.50275892] yes=65,no=66,missing=66
						65:leaf=-0.129891038
						66:leaf=-0.142091095
					38:[f13<1.07597828] yes=67,no=68,missing=68
						67:leaf=-0.161631718
						68:leaf=0.038322743
				22:[f13<0.993189156] yes=39,no=40,missing=40
					39:[f16<2.36198902] yes=69,no=70,missing=70
						69:leaf=-0.274240226
						70:leaf=-0.0754462034
					40:[f32<0.958607733] yes=71,no=72,missing=72
						71:leaf=-0.356153637
						72:leaf=0.116454951
	2:[f31<7.66522503] yes=5,no=6,missing=6
		5:[f27<5.40617275] yes=11,no=12,missing=12
			11:[f2<-0.0600982048] yes=23,no=24,missing=24
				23:[f34<2.24811649] yes=41,no=42,missing=42
					41:[f18<4.99928808] yes=73,no=74,missing=74
						73:leaf=0.0820432678
						74:leaf=-0.239314795
					42:[f26<4.99813557] yes=75,no=76,missing=76
						75:leaf=-0.124973133
						76:leaf=-0.292323619
				24:[f30<4.08141088] yes=43,no=44,missing=44
					43:[f34<2.24811649] yes=77,no=78,missing=78
						77:leaf=0.118187584
						78:leaf=0.0919571966
					44:[f2<1.14821601] yes=79,no=80,missing=80
						79:leaf=-0.105401032
						80:leaf=0.085912928
			12:[f2<1.026227] yes=25,no=26,missing=26
				25:leaf=-0.119697809
				26:[f13<-0.504229784] yes=45,no=46,missing=46
					45:[f10<-0.16566354] yes=81,no=82,missing=82
						81:leaf=-0.127892032
						82:leaf=0.115848437
					46:[f12<-2.25829053] yes=83,no=84,missing=84
						83:leaf=-0.151236296
						84:leaf=-0.123922482
		6:[f2<-0.118235536] yes=13,no=14,missing=14
			13:leaf=-0.129896462
			14:leaf=-0.119334534
booster[12]:
0:[f2<-0.292370677] yes=1,no=2,missing=2
	1:[f2<-0.845541894] yes=3,no=4,missing=4
		3:[f20<4.02953911] yes=7,no=8,missing=8
			7:[f13<1.06103277] yes=15,no=16,missing=16
				15:[f2<-0.84712404] yes=29,no=30,missing=30
					29:[f21<7.28345203] yes=55,no=56,missing=56
						55:leaf=-0.118164256
						56:leaf=-0.00211451366
					30:[f27<5.40617275] yes=57,no=58,missing=58
						57:leaf=-0.10704118
						58:leaf=-0.0405188203
				16:[f10<-0.18010278] yes=31,no=32,missing=32
					31:[f10<-0.194542021] yes=59,no=60,missing=60
						59:leaf=-0.0600195788
						60:leaf=0.226612791
					32:[f0<-0.316674173] yes=61,no=62,missing=62
						61:leaf=-0.0867803618
						62:leaf=-0.119514942
			8:[f9<-0.827397704] yes=17,no=18,missing=18
				17:leaf=0.176012382
				18:[f4<1.46259379] yes=33,no=34,missing=34
					33:[f13<-1.37206137] yes=63,no=64,missing=64
						63:leaf=0.152528733
						64:leaf=0.136194974
					34:leaf=0.17463176
		4:[f19<5.13780785] yes=9,no=10,missing=10
			9:[f24<4.36744452] yes=19,no=20,missing=20
				19:[f35<1.95829558] yes=35,no=36,missing=36
					35:[f18<4.99928808] yes=65,no=66,missing=66
						65:leaf=-0.00698900735
						66:leaf=-0.134486765
					36:[f13<-0.248095259] yes=67,no=68,missing=68
						67:leaf=-0.112411618
						68:leaf=-0.0562208779
				20:[f2<-0.50275892] yes=37,no=38,missing=38
					37:[f13<1.06103277] yes=69,no=70,missing=70
						69:leaf=-0.124939024
						70:leaf=-0.132271171
					38:[f7<-1.57878613] yes=71,no=72,missing=72
						71:leaf=-0.0620023385
						72:leaf=-0.138794675
			10:[f2<-0.440996975] yes=21,no=22,missing=22
				21:[f2<-0.590755999] yes=39,no=40,missing=40
					39:[f13<1.06103277] yes=73,no=74,missing=74
						73:leaf=-0.135728061
						74:leaf=-0.164525107
					40:[f10<-0.205371454] yes=75,no=76,missing=76
						75:leaf=-0.148902461
						76:leaf=-0.0344960503
				22:[f13<-0.280378968] yes=41,no=42,missing=42
					41:leaf=-0.208398536
					42:leaf=-0.230545208
	2:[f2<-0.0762362778] yes=5,no=6,missing=6
		5:[f35<1.95829558] yes=11,no=12,missing=12
			11:[f34<2.24811649] yes=23,no=24,missing=24
				23:[f18<4.99928808] yes=43,no=44,missing=44
					43:[f19<5.13780785] yes=77,no=78,missing=78
						77:leaf=0.0906083509
						78:leaf=-0.26725623
					44:[f2<-0.118235536] yes=79,no=80,missing=80
						79:leaf=-0.155450776
						80:leaf=-0.29685232
				24:[f29<3.53301716] yes=45,no=46,missing=46
					45:[f26<4.99813557] yes=81,no=82,missing=82
						81:leaf=0.169721141
						82:leaf=-0.18928948
					46:[f2<-0.118235536] yes=83,no=84,missing=84
						83:leaf=-0.170080215
						84:leaf=-0.366027117
			12:[f2<-0.142100319] yes=25,no=26,missing=26
				25:[f22<3.28235865] yes=47,no=48,missing=48
					47:[f30<4.08141088] yes=85,no=86,missing=86
						85:leaf=0.0373542197
						86:leaf=-0.152347803
					48:[f32<0.958607733] yes=87,no=88,missing=88
						87:leaf=0.0911462605
						88:leaf=-0.133550987
				26:[f30<4.08141088] yes=49,no=50,missing=50
					49:[f27<5.40617275] yes=89,no=90,missing=90
						89:leaf=0.105552547
						90:leaf=-0.117856279
					50:[f2<-0.118235536] yes=91,no=92,missing=92
						91:leaf=-0.15763329
						92:leaf=-0.152190149
		6:[f31<7.66522503] yes=13,no=14,missing=14
			13:[f30<4.08141088] yes=27,no=28,missing=28
				27:[f27<5.40617275] yes=51,no=52,missing=52
					51:[f26<4.99813557] yes=93,no=94,missing=94
						93:leaf=0.111337714
						94:leaf=0.052082926
					52:[f2<1.026227] yes=95,no=96,missing=96
						95:leaf=-0.11713399
						96:leaf=0.0296892077
				28:[f2<0.866720319] yes=53,no=54,missing=54
					53:[f2<0.834293485] yes=97,no=98,missing=98
						97:leaf=-0.135050163
						98:leaf=-0.109465443
					54:[f2<2.45226288] yes=99,no=100,missing=100
						99:leaf=0.0896095857
						100:leaf=-0.159249142
			14:leaf=-0.117159031
booster[13]:
0:[f2<-0.362374604] yes=1,no=2,missing=2
	1:[f2<-0.845541894] yes=3,no=4,missing=4
		3:[f20<4.02953911] yes=7,no=8,missing=8
			7:[f13<1.06103277] yes=15,no=16,missing=16
				15:[f2<-0.84712404] yes=29,no=30,missing=30
					29:[f21<7.28345203] yes=55,no=56,missing=56
						55:leaf=-0.11586719
						56:leaf=-0.00190549425
					30:[f27<5.40617275] yes=57,no=58,missing=58
						57:leaf=-0.103861727
						58:leaf=-0.0374865979
				16:[f10<-0.18010278] yes=31,no=32,missing=32
					31:[f16<-0.572037995] yes=59,no=60,missing=60
						59:leaf=0.0919197425
						60:leaf=-0.0706961975
					32:[f2<-0.84712404] yes=61,no=62,missing=62
						61:leaf=-0.11789047
						62:leaf=-0.096363835
			8:[f9<-0.827397704] yes=17,no=18,missing=18
				17:leaf=0.163746461
				18:[f4<1.46259379] yes=33,no=34,missing=34
					33:[f13<-1.37206137] yes=63,no=64,missing=64
						63:leaf=0.145106748
						64:leaf=0.131533578
					34:leaf=0.16263333
		4:[f2<-0.797789335] yes=9,no=10,missing=10
			9:[f20<4.02953911] yes=19,no=20,missing=20
				19:[f30<4.08141088] yes=35,no=36,missing=36
					35:[f24<4.36744452] yes=65,no=66,missing=66
						65:leaf=0.00150445022
						66:leaf=-0.127313122
					36:[f2<-0.836595476] yes=67,no=68,missing=68
						67:leaf=-0.1247622
						68:leaf=-0.132654667
				20:[f16<-0.403826743] yes=37,no=38,missing=38
					37:[f13<-1.27778709] yes=69,no=70,missing=70
						69:leaf=0.160353079
						70:leaf=0.212602377
					38:[f13<-0.354208887] yes=71,no=72,missing=72
						71:leaf=0.198371828
						72:leaf=-0.175740972
			10:[f20<4.02953911] yes=21,no=22,missing=22
				21:[f25<4.52521372] yes=39,no=40,missing=40
					39:[f23<5.27439022] yes=73,no=74,missing=74
						73:leaf=-0.0292722527
						74:leaf=-0.138633534
					40:[f2<-0.794596195] yes=75,no=76,missing=76
						75:leaf=-0.0781242475
						76:leaf=-0.132358775
				22:[f2<-0.794596195] yes=41,no=42,missing=42
					41:[f5<-1.42234039] yes=77,no=78,missing=78
						77:leaf=0.45364067
						78:leaf=-0.114010386
					42:[f13<-1.27778709] yes=79,no=80,missing=80
						79:leaf=-0.141776592
						80:leaf=-0.126239255
	2:[f2<-0.0762362778] yes=5,no=6,missing=6
		5:[f35<1.95829558] yes=11,no=12,missing=12
			11:[f34<2.24811649] yes=23,no=24,missing=24
				23:[f19<5.13780785] yes=43,no=44,missing=44
					43:[f28<5.09442329] yes=81,no=82,missing=82
						81:leaf=0.0827685595
						82:leaf=-0.216427043
					44:[f2<-0.255711198] yes=83,no=84,missing=84
						83:leaf=-0.200059935
						84:leaf=-0.239674374
				24:[f29<3.53301716] yes=45,no=46,missing=46
					45:[f26<4.99813557] yes=85,no=86,missing=86
						85:leaf=0.180973291
						86:leaf=-0.169051886
					46:[f2<-0.118235536] yes=87,no=88,missing=88
						87:leaf=-0.162146643
						88:leaf=-0.284718901
			12:[f2<-0.142100319] yes=25,no=26,missing=26
				25:[f22<3.28235865] yes=47,no=48,missing=48
					47:[f30<4.08141088] yes=89,no=90,missing=90
						89:leaf=0.0273935553
						90:leaf=-0.136292383
					48:[f32<0.958607733] yes=91,no=92,missing=92
						91:leaf=-0.0292196814
						92:leaf=-0.124132834
				26:[f30<4.08141088] yes=49,no=50,missing=50
					49:[f27<5.40617275] yes=93,no=94,missing=94
						93:leaf=0.102183856
						94:leaf=-0.115868188
					50:leaf=-0.146753117
		6:[f31<7.66522503] yes=13,no=14,missing=14
			13:[f30<4.08141088] yes=27,no=28,missing=28
				27:[f26<4.99813557] yes=51,no=52,missing=52
					51:[f29<3.53301716] yes=95,no=96,missing=96
						95:leaf=0.112423949
						96:leaf=0.0708158836
					52:[f2<0.899061263] yes=97,no=98,missing=98
						97:leaf=-0.61698097
						98:leaf=0.100586072
				28:[f2<0.994990826] yes=53,no=54,missing=54
					53:[f2<0.866720319] yes=99,no=100,missing=100
						99:leaf=-0.130332574
						100:leaf=-0.0325051919
					54:[f2<2.45226288] yes=101,no=102,missing=102
						101:leaf=0.0883071125
						102:leaf=-0.134725839
			14:leaf=-0.115261391
booster[14]:
0:[f2<-0.167110011] yes=1,no=2,missing=2
	1:[f34<2.24811649] yes=3,no=4,missing=4
		3:[f35<1.95829558] yes=7,no=8,missing=8
			7:[f13<-0.280378968] yes=15,no=16,missing=16
				15:[f20<4.02953911] yes=27,no=28,missing=28
					27:[f18<4.99928808] yes=51,no=52,missing=52
						51:leaf=0.169542
						52:leaf=-0.14337562
					28:[f2<-0.794596195] yes=53,no=54,missing=54
						53:leaf=0.163483262
						54:leaf=-0.128760308
				16:[f13<1.06103277] yes=29,no=30,missing=30
					29:[f28<5.09442329] yes=55,no=56,missing=56
						55:leaf=-0.0559508093
						56:leaf=-0.129301742
					30:[f19<5.13780785] yes=57,no=58,missing=58
						57:leaf=0.0241972394
						58:leaf=-0.118524186
			8:[f13<1.06103277] yes=17,no=18,missing=18
				17:[f22<3.28235865] yes=31,no=32,missing=32
					31:[f30<4.08141088] yes=59,no=60,missing=60
						59:leaf=-0.0546837747
						60:leaf=-0.118307792
					32:[f2<-0.191101372] yes=61,no=62,missing=62
						61:leaf=-0.118796304
						62:leaf=-0.155137658
				18:[f10<-0.16566354] yes=33,no=34,missing=34
					33:[f30<4.08141088] yes=63,no=64,missing=64
						63:leaf=0.16428408
						64:leaf=-0.14030914
					34:[f30<4.08141088] yes=65,no=66,missing=66
						65:leaf=-0.0212123916
						66:leaf=-0.124523818
		4:[f29<3.53301716] yes=9,no=10,missing=10
			9:[f26<4.99813557] yes=19,no=20,missing=20
				19:[f21<7.28345203] yes=35,no=36,missing=36
					35:[f2<-0.474711448] yes=67,no=68,missing=68
						67:leaf=0.383575857
						68:leaf=0.210036591
					36:[f2<-0.816746533] yes=69,no=70,missing=70
						69:leaf=0.193994373
						70:leaf=-0.125706002
				20:[f2<-0.534919977] yes=37,no=38,missing=38
					37:[f2<-0.845541894] yes=71,no=72,missing=72
						71:leaf=-0.116129555
						72:leaf=-0.127942622
					38:[f13<-0.262010008] yes=73,no=74,missing=74
						73:leaf=-0.137297615
						74:leaf=-0.162350222
			10:[f2<-0.534919977] yes=21,no=22,missing=22
				21:[f2<-0.845541894] yes=39,no=40,missing=40
					39:[f13<-1.27778709] yes=75,no=76,missing=76
						75:leaf=-0.121494405
						76:leaf=-0.113690875
					40:[f13<1.06103277] yes=77,no=78,missing=78
						77:leaf=-0.126899749
						78:leaf=-0.141798481
				22:[f2<-0.292370677] yes=41,no=42,missing=42
					41:[f2<-0.453222781] yes=79,no=80,missing=80
						79:leaf=-0.149236068
						80:leaf=-0.16103889
					42:[f2<-0.191101372] yes=81,no=82,missing=82
						81:leaf=-0.14032796
						82:leaf=-0.160005018
	2:[f31<7.66522503] yes=5,no=6,missing=6
		5:[f18<4.99928808] yes=11,no=12,missing=12
			11:[f23<5.27439022] yes=23,no=24,missing=24
				23:[f27<5.40617275] yes=43,no=44,missing=44
					43:[f26<4.99813557] yes=83,no=84,missing=84
						83:leaf=0.103189148
						84:leaf=0.038609352
					44:[f2<1.026227] yes=85,no=86,missing=86
						85:leaf=-0.116880536
						86:leaf=0.0160860997
				24:[f2<-0.118235536] yes=45,no=46,missing=46
					45:[f2<-0.142100319] yes=87,no=88,missing=88
						87:leaf=-0.303941339
						88:leaf=-0.321341544
					46:[f2<-0.0762362778] yes=89,no=90,missing=90
						89:leaf=-0.276864141
						90:leaf=-0.301922768
			12:[f2<0.199491739] yes=25,no=26,missing=26
				25:[f2<-0.0762362778] yes=47,no=48,missing=48
					47:[f2<-0.118235536] yes=91,no=92,missing=92
						91:leaf=-0.159481809
						92:leaf=-0.258918732
					48:[f13<1.30781722] yes=93,no=94,missing=94
						93:leaf=-0.593685567
						94:leaf=0.0193572547
				26:[f13<1.06103277] yes=49,no=50,missing=50
					49:[f2<0.373182684] yes=95,no=96,missing=96
						95:leaf=-0.190887749
						96:leaf=0.0459145196
					50:[f8<2.10186934] yes=97,no=98,missing=98
						97:leaf=0.113101237
						98:leaf=-0.00208508386
		6:[f2<-0.118235536] yes=13,no=14,missing=14
			13:leaf=-0.130827546
			14:leaf=-0.113626994
booster[15]:
0:[f2<-0.167110011] yes=1,no=2,missing=2
	1:[f19<5.13780785] yes=3,no=4,missing=4
		3:[f35<1.95829558] yes=7,no=8,missing=8
			7:[f34<2.24811649] yes=15,no=16,missing=16
				15:[f24<4.36744452] yes=27,no=28,missing=28
					27:[f18<4.99928808] yes=51,no=52,missing=52
						51:leaf=0.01688876
						52:leaf=-0.127974331
					28:[f2<-0.235182479] yes=53,no=54,missing=54
						53:leaf=-0.12115448
						54:leaf=-0.0226359349
				16:[f29<3.53301716] yes=29,no=30,missing=30
					29:[f26<4.99813557] yes=55,no=56,missing=56
						55:leaf=-0.0541828759
						56:leaf=-0.123789705
					30:[f2<-0.534919977] yes=57,no=58,missing=58
						57:leaf=-0.120480195
						58:leaf=-0.145914763
			8:[f13<1.06103277] yes=17,no=18,missing=18
				17:[f22<3.28235865] yes=31,no=32,missing=32
					31:[f30<4.08141088] yes=59,no=60,missing=60
						59:leaf=-0.050763119
						60:leaf=-0.116302483
					32:[f2<-0.214232355] yes=61,no=62,missing=62
						61:leaf=-0.116545439
						62:leaf=-0.135277495
				18:[f10<-0.16566354] yes=33,no=34,missing=34
					33:[f30<4.08141088] yes=63,no=64,missing=64
						63:leaf=0.155202076
						64:leaf=-0.135519594
					34:[f30<4.08141088] yes=65,no=66,missing=66
						65:leaf=-0.0192534514
						66:leaf=-0.121860385
		4:[f2<-0.453222781] yes=9,no=10,missing=10
			9:[f2<-0.590755999] yes=19,no=20,missing=20
				19:[f13<-1.2245208] yes=35,no=36,missing=36
					35:[f16<-0.408074498] yes=67,no=68,missing=68
						67:leaf=-0.210566565
						68:leaf=-0.173903093
					36:[f13<1.06103277] yes=69,no=70,missing=70
						69:leaf=-0.125422224
						70:leaf=-0.143715128
				20:[f13<1.05006289] yes=37,no=38,missing=38
					37:[f10<-0.129565433] yes=71,no=72,missing=72
						71:leaf=-0.167016342
						72:leaf=-0.0412648544
					38:[f16<-0.575711071] yes=73,no=74,missing=74
						73:leaf=0.125109568
						74:leaf=-0.0278680231
			10:[f13<-1.79638767] yes=21,no=22,missing=22
				21:[f10<-0.302836329] yes=39,no=40,missing=40
					39:[f3<-0.196647182] yes=75,no=76,missing=76
						75:leaf=-0.194479525
						76:leaf=-0.214686781
					40:leaf=0.162711039
				22:[f5<1.6398617] yes=41,no=42,missing=42
					41:[f2<-0.440996975] yes=77,no=78,missing=78
						77:leaf=-0.214985877
						78:leaf=-0.192448169
					42:[f7<-1.41195595] yes=79,no=80,missing=80
						79:leaf=0.0671498552
						80:leaf=-0.194696605
	2:[f31<7.66522503] yes=5,no=6,missing=6
		5:[f30<4.08141088] yes=11,no=12,missing=12
			11:[f25<4.52521372] yes=23,no=24,missing=24
				23:[f18<4.99928808] yes=43,no=44,missing=44
					43:[f34<2.24811649] yes=81,no=82,missing=82
						81:leaf=0.108202413
						82:leaf=0.0728153214
					44:[f2<0.199491739] yes=83,no=84,missing=84
						83:leaf=-0.274247736
						84:leaf=0.0664193481
				24:[f2<-0.0762362778] yes=45,no=46,missing=46
					45:[f2<-0.142100319] yes=85,no=86,missing=86
						85:leaf=-0.231180951
						86:leaf=-0.198627532
					46:leaf=-0.230310068
			12:[f2<1.14821601] yes=25,no=26,missing=26
				25:[f13<1.14187086] yes=47,no=48,missing=48
					47:[f13<-1.65675235] yes=87,no=88,missing=88
						87:leaf=-0.012042664
						88:leaf=-0.136369199
					48:[f2<0.899061263] yes=89,no=90,missing=90
						89:leaf=-0.134674266
						90:leaf=0.0960579664
				26:[f2<2.45226288] yes=49,no=50,missing=50
					49:[f13<1.02797842] yes=91,no=92,missing=92
						91:leaf=0.0435008146
						92:leaf=0.110420682
					50:[f10<1.41904318] yes=93,no=94,missing=94
						93:leaf=-0.265819281
						94:leaf=0.0954211131
		6:[f2<-0.118235536] yes=13,no=14,missing=14
			13:leaf=-0.126891866
			14:leaf=-0.112162866
booster[16]:
0:[f2<-0.362374604] yes=1,no=2,missing=2
	1:[f2<-0.845541894] yes=3,no=4,missing=4
		3:[f20<4.02953911] yes=7,no=8,missing=8
			7:[f13<1.06103277] yes=15,no=16,missing=16
				15:[f2<-0.84712404] yes=29,no=30,missing=30
					29:[f21<7.28345203] yes=55,no=56,missing=56
						55:leaf=-0.111145794
						56:leaf=-0.0150503432
					30:[f13<-1.2953757] yes=57,no=58,missing=58
						57:leaf=-0.0226297807
						58:leaf=-0.0983868018
				16:[f10<-0.18010278] yes=31,no=32,missing=32
					31:[f11<1.05030179] yes=59,no=60,missing=60
						59:leaf=-0.0691734999
						60:leaf=0.0761617348
					32:[f0<-0.316674173] yes=61,no=62,missing=62
						61:leaf=-0.0720708668
						62:leaf=-0.113344334
			8:[f16<-0.252319217] yes=17,no=18,missing=18
				17:[f8<-0.123296097] yes=33,no=34,missing=34
					33:leaf=0.131937191
					34:leaf=0.144367158
				18:leaf=0.145517126
		4:[f2<-0.800665975] yes=9,no=10,missing=10
			9:[f20<4.02953911] yes=19,no=20,missing=20
				19:[f2<-0.821464241] yes=35,no=36,missing=36
					35:[f13<-0.262010008] yes=63,no=64,missing=64
						63:leaf=0.0392226577
						64:leaf=-0.0673925206
					36:[f13<1.02797842] yes=65,no=66,missing=66
						65:leaf=-0.00348441466
						66:leaf=0.0929413587
				20:[f16<-0.348356009] yes=37,no=38,missing=38
					37:[f13<-1.27778709] yes=67,no=68,missing=68
						67:leaf=0.143597901
						68:leaf=0.17560792
					38:[f13<-1.20639217] yes=69,no=70,missing=70
						69:leaf=0.163281426
						70:leaf=0.178227767
			10:[f20<4.02953911] yes=21,no=22,missing=22
				21:[f25<4.52521372] yes=39,no=40,missing=40
					39:[f23<5.27439022] yes=71,no=72,missing=72
						71:leaf=-0.018361887
						72:leaf=-0.131988049
					40:[f2<-0.794596195] yes=73,no=74,missing=74
						73:leaf=-0.0642759204
						74:leaf=-0.128161594
				22:[f2<-0.794596195] yes=41,no=42,missing=42
					41:[f10<-0.237859741] yes=75,no=76,missing=76
						75:leaf=0.160955548
						76:leaf=-0.151783273
					42:[f2<-0.556408644] yes=77,no=78,missing=78
						77:leaf=-0.125162482
						78:leaf=-0.191164255
	2:[f2<-0.0600982048] yes=5,no=6,missing=6
		5:[f23<5.27439022] yes=11,no=12,missing=12
			11:[f25<4.52521372] yes=23,no=24,missing=24
				23:[f35<1.95829558] yes=43,no=44,missing=44
					43:[f34<2.24811649] yes=79,no=80,missing=80
						79:leaf=0.0785760432
						80:leaf=-0.0917629153
					44:[f2<-0.118235536] yes=81,no=82,missing=82
						81:leaf=-0.0697103068
						82:leaf=0.076282151
				24:[f2<-0.255711198] yes=45,no=46,missing=46
					45:[f2<-0.292370677] yes=83,no=84,missing=84
						83:leaf=-0.141273305
						84:leaf=-0.144443795
					46:[f2<-0.142100319] yes=85,no=86,missing=86
						85:leaf=-0.200605065
						86:leaf=-0.184151217
			12:[f2<-0.235182479] yes=25,no=26,missing=26
				25:[f2<-0.274429977] yes=47,no=48,missing=48
					47:[f2<-0.292370677] yes=87,no=88,missing=88
						87:leaf=-0.169092402
						88:leaf=-0.176191553
					48:[f2<-0.255711198] yes=89,no=90,missing=90
						89:leaf=-0.185652778
						90:leaf=-0.205380425
				26:[f2<-0.191101372] yes=49,no=50,missing=50
					49:[f2<-0.214232355] yes=91,no=92,missing=92
						91:leaf=-0.26469022
						92:leaf=-0.218769103
					50:[f2<-0.167110011] yes=93,no=94,missing=94
						93:leaf=-0.299444795
						94:leaf=-0.263199598
		6:[f31<7.66522503] yes=13,no=14,missing=14
			13:[f27<5.40617275] yes=27,no=28,missing=28
				27:[f30<4.08141088] yes=51,no=52,missing=52
					51:[f34<2.24811649] yes=95,no=96,missing=96
						95:leaf=0.107989825
						96:leaf=0.0742663741
					52:[f2<1.14821601] yes=97,no=98,missing=98
						97:leaf=-0.0962693319
						98:leaf=0.0660029352
				28:[f13<-1.32992554] yes=53,no=54,missing=54
					53:[f8<-0.28832978] yes=99,no=100,missing=100
						99:leaf=0.0770344958
						100:leaf=-0.129103228
					54:[f7<1.59453666] yes=101,no=102,missing=102
						101:leaf=-0.110712685
						102:leaf=-0.0134811206
			14:leaf=-0.110849194
booster[17]:
0:[f2<-0.396862715] yes=1,no=2,missing=2
	1:[f24<4.36744452] yes=3,no=4,missing=4
		3:[f34<2.24811649] yes=7,no=8,missing=8
			7:[f35<1.95829558] yes=15,no=16,missing=16
				15:[f19<5.13780785] yes=29,no=30,missing=30
					29:[f28<5.09442329] yes=57,no=58,missing=58
						57:leaf=0.0153438002
						58:leaf=-0.111388803
					30:[f2<-0.590755999] yes=59,no=60,missing=60
						59:leaf=-0.127522111
						60:leaf=-0.0751930624
				16:[f13<0.431187689] yes=31,no=32,missing=32
					31:[f22<3.28235865] yes=61,no=62,missing=62
						61:leaf=-0.0873902142
						62:leaf=-0.114887133
					32:[f10<-0.194542021] yes=63,no=64,missing=64
						63:leaf=0.201271802
						64:leaf=-0.0830695555
			8:[f13<-1.13362098] yes=17,no=18,missing=18
				17:[f16<-0.226045534] yes=33,no=34,missing=34
					33:[f26<4.99813557] yes=65,no=66,missing=66
						65:leaf=-0.029960731
						66:leaf=-0.123225644
					34:[f0<-0.316674292] yes=67,no=68,missing=68
						67:leaf=0.0607792549
						68:leaf=-0.109881163
				18:[f16<-1.75851464] yes=35,no=36,missing=36
					35:[f10<-1.00674927] yes=69,no=70,missing=70
						69:leaf=0.258035004
						70:leaf=-0.131236896
					36:[f10<-0.18010278] yes=71,no=72,missing=72
						71:leaf=-0.100524127
						72:leaf=-0.117236272
		4:[f13<1.06103277] yes=9,no=10,missing=10
			9:[f2<-0.50275892] yes=19,no=20,missing=20
				19:[f2<-0.845541894] yes=37,no=38,missing=38
					37:leaf=-0.110956684
					38:[f2<-0.549677253] yes=73,no=74,missing=74
						73:leaf=-0.116850689
						74:leaf=-0.120774329
				20:[f2<-0.453222781] yes=39,no=40,missing=40
					39:leaf=-0.124297619
					40:leaf=-0.130292296
			10:[f2<-0.797789335] yes=21,no=22,missing=22
				21:[f2<-0.821464241] yes=41,no=42,missing=42
					41:[f10<-0.18010278] yes=75,no=76,missing=76
						75:leaf=-0.125255391
						76:leaf=-0.119994998
					42:[f16<-0.564441979] yes=77,no=78,missing=78
						77:leaf=-0.126448184
						78:leaf=-0.134828195
				22:[f2<-0.453222781] yes=43,no=44,missing=44
					43:[f16<-0.564441979] yes=79,no=80,missing=80
						79:leaf=-0.120162465
						80:leaf=-0.123007476
					44:leaf=-0.132843509
	2:[f2<-0.0600982048] yes=5,no=6,missing=6
		5:[f28<5.09442329] yes=11,no=12,missing=12
			11:[f19<5.13780785] yes=23,no=24,missing=24
				23:[f18<4.99928808] yes=45,no=46,missing=46
					45:[f35<1.95829558] yes=81,no=82,missing=82
						81:leaf=0.0681651235
						82:leaf=-0.037245594
					46:[f2<-0.118235536] yes=83,no=84,missing=84
						83:leaf=-0.13994351
						84:leaf=-0.212247059
				24:[f2<-0.167110011] yes=47,no=48,missing=48
					47:[f2<-0.255711198] yes=85,no=86,missing=86
						85:leaf=-0.174447119
						86:leaf=-0.196544364
					48:[f2<-0.0762362778] yes=87,no=88,missing=88
						87:leaf=-0.247261122
						88:leaf=-0.352656037
			12:[f2<-0.235182479] yes=25,no=26,missing=26
				25:[f2<-0.274429977] yes=49,no=50,missing=50
					49:[f13<1.06103277] yes=89,no=90,missing=90
						89:leaf=-0.167287767
						90:leaf=-0.178230211
					50:[f2<-0.255711198] yes=91,no=92,missing=92
						91:leaf=-0.18215701
						92:leaf=-0.197864443
				26:[f2<-0.214232355] yes=51,no=52,missing=52
					51:leaf=-0.227711111
					52:[f2<-0.0964327306] yes=93,no=94,missing=94
						93:leaf=-0.289739996
						94:leaf=-0.244567424
		6:[f31<7.66522503] yes=13,no=14,missing=14
			13:[f30<4.08141088] yes=27,no=28,missing=28
				27:[f29<3.53301716] yes=53,no=54,missing=54
					53:[f26<4.99813557] yes=95,no=96,missing=96
						95:leaf=0.105447426
						96:leaf=0.035437081
					54:[f2<1.25597453] yes=97,no=98,missing=98
						97:leaf=-0.894738972
						98:leaf=0.0968952999
				28:[f13<1.06103277] yes=55,no=56,missing=56
					55:[f2<2.26438832] yes=99,no=100,missing=100
						99:leaf=-0.00674287556
						100:leaf=-0.199005842
					56:[f2<0.931457222] yes=101,no=102,missing=102
						101:leaf=-0.118845023
						102:leaf=0.102046542
			14:leaf=-0.109709956
booster[18]:
0:[f2<-0.142100319] yes=1,no=2,missing=2
	1:[f18<4.99928808] yes=3,no=4,missing=4
		3:[f34<2.24811649] yes=7,no=8,missing=8
			7:[f35<1.95829558] yes=15,no=16,missing=16
				15:[f25<4.52521372] yes=31,no=32,missing=32
					31:[f23<5.27439022] yes=59,no=60,missing=60
						59:leaf=0.0241689775
						60:leaf=-0.113671534
					32:[f2<-0.794596195] yes=61,no=62,missing=62
						61:leaf=-0.0520411022
						62:leaf=-0.126877755
				16:[f22<3.28235865] yes=33,no=34,missing=34
					33:[f30<4.08141088] yes=63,no=64,missing=64
						63:leaf=-0.0241076369
						64:leaf=-0.113495968
					34:[f13<1.06103277] yes=65,no=66,missing=66
						65:leaf=-0.113412194
						66:leaf=-0.157381013
			8:[f29<3.53301716] yes=17,no=18,missing=18
				17:[f26<4.99813557] yes=35,no=36,missing=36
					35:[f21<7.28345203] yes=67,no=68,missing=68
						67:leaf=0.255751461
						68:leaf=-0.0855524987
					36:[f2<-0.534919977] yes=69,no=70,missing=70
						69:leaf=-0.116361655
						70:leaf=-0.133207723
				18:[f2<-0.534919977] yes=37,no=38,missing=38
					37:[f2<-0.845541894] yes=71,no=72,missing=72
						71:leaf=-0.109721951
						72:leaf=-0.119854286
					38:[f2<-0.167110011] yes=73,no=74,missing=74
						73:leaf=-0.137292325
						74:leaf=-0.169889137
		4:[f13<-1.24198842] yes=9,no=10,missing=10
			9:[f16<-0.403826743] yes=19,no=20,missing=20
				19:[f2<-0.590755999] yes=39,no=40,missing=40
					39:[f2<-0.845541894] yes=75,no=76,missing=76
						75:leaf=-0.148639351
						76:leaf=-0.165891826
					40:[f2<-0.534919977] yes=77,no=78,missing=78
						77:leaf=-0.139878243
						78:leaf=-0.13189809
				20:[f2<-0.845541894] yes=41,no=42,missing=42
					41:leaf=-0.129578024
					42:[f2<-0.590755999] yes=79,no=80,missing=80
						79:leaf=-0.142025918
						80:leaf=-0.130359635
			10:[f2<-0.50275892] yes=21,no=22,missing=22
				21:[f13<1.06103277] yes=43,no=44,missing=44
					43:[f13<-0.691158712] yes=81,no=82,missing=82
						81:leaf=-0.127159029
						82:leaf=-0.119023338
					44:[f2<-0.797789335] yes=83,no=84,missing=84
						83:leaf=-0.132012472
						84:leaf=-0.124396004
				22:[f2<-0.255711198] yes=45,no=46,missing=46
					45:[f2<-0.474711448] yes=85,no=86,missing=86
						85:leaf=-0.128806993
						86:leaf=-0.132834375
					46:[f2<-0.167110011] yes=87,no=88,missing=88
						87:leaf=-0.141450971
						88:leaf=-0.134117395
	2:[f27<5.40617275] yes=5,no=6,missing=6
		5:[f26<4.99813557] yes=11,no=12,missing=12
			11:[f29<3.53301716] yes=23,no=24,missing=24
				23:[f30<4.08141088] yes=47,no=48,missing=48
					47:[f18<4.99928808] yes=89,no=90,missing=90
						89:leaf=0.104469992
						90:leaf=-0.0573245846
					48:[f2<0.866720319] yes=91,no=92,missing=92
						91:leaf=-0.125508413
						92:leaf=0.0543388799
				24:[f2<1.37115228] yes=49,no=50,missing=50
					49:[f2<-0.0762362778] yes=93,no=94,missing=94
						93:leaf=-0.236751556
						94:leaf=-0.422823191
					50:[f2<2.45226288] yes=95,no=96,missing=96
						95:leaf=0.102650918
						96:leaf=-0.0273478329
			12:[f2<0.899061263] yes=25,no=26,missing=26
				25:[f2<-0.0600982048] yes=51,no=52,missing=52
					51:[f2<-0.118235536] yes=97,no=98,missing=98
						97:leaf=-0.176071078
						98:leaf=-0.297400594
					52:[f9<1.62614584] yes=99,no=100,missing=100
						99:leaf=-0.468481928
						100:leaf=-0.0606794767
				26:[f2<2.26438832] yes=53,no=54,missing=54
					53:[f13<-0.248095259] yes=101,no=102,missing=102
						101:leaf=0.0275054555
						102:leaf=0.110958792
					54:[f2<2.33894539] yes=103,no=104,missing=104
						103:leaf=-0.570721567
						104:leaf=-0.865099549
		6:[f2<1.026227] yes=13,no=14,missing=14
			13:[f2<-0.0762362778] yes=27,no=28,missing=28
				27:leaf=-0.113704108
				28:leaf=-0.117003314
			14:[f13<-0.504229784] yes=29,no=30,missing=30
				29:[f10<-0.16566354] yes=55,no=56,missing=56
					55:[f13<-0.912559628] yes=105,no=106,missing=106
						105:leaf=-0.137251526
						106:leaf=-0.123765051
					56:[f8<-0.28832978] yes=107,no=108,missing=108
						107:leaf=0.115110971
						108:leaf=-0.399666905
				30:[f12<-2.25829053] yes=57,no=58,missing=58
					57:leaf=-0.161284611
					58:[f5<1.14046335] yes=109,no=110,missing=110
						109:leaf=-0.125716731
						110:leaf=-0.136594817
booster[19]:
0:[f2<-0.396862715] yes=1,no=2,missing=2
	1:[f24<4.36744452] yes=3,no=4,missing=4
		3:[f2<-0.846347332] yes=7,no=8,missing=8
			7:[f20<4.02953911] yes=15,no=16,missing=16
				15:[f13<1.06103277] yes=31,no=32,missing=32
					31:[f2<-0.847900748] yes=61,no=62,missing=62
						61:leaf=-0.108430743
						62:leaf=-0.0889448673
					32:[f10<-0.18010278] yes=63,no=64,missing=64
						63:leaf=-0.0298077464
						64:leaf=-0.11026185
				16:[f16<-0.252319217] yes=33,no=34,missing=34
					33:leaf=0.126756713
					34:leaf=0.137998968
			8:[f19<5.13780785] yes=17,no=18,missing=18
				17:[f28<5.09442329] yes=35,no=36,missing=36
					35:[f25<4.52521372] yes=65,no=66,missing=66
						65:leaf=0.00566485617
						66:leaf=-0.0949756131
					36:[f2<-0.794596195] yes=67,no=68,missing=68
						67:leaf=-0.0734816194
						68:leaf=-0.126104981
				18:[f2<-0.590755999] yes=37,no=38,missing=38
					37:[f13<-1.2245208] yes=69,no=70,missing=70
						69:leaf=-0.16192162
						70:leaf=-0.124332897
					38:[f13<1.05006289] yes=71,no=72,missing=72
						71:leaf=-0.099040702
						72:leaf=0.0224969815
		4:[f13<1.06103277] yes=9,no=10,missing=10
			9:[f2<-0.50275892] yes=19,no=20,missing=20
				19:[f2<-0.845541894] yes=39,no=40,missing=40
					39:leaf=-0.110045575
					40:[f2<-0.549677253] yes=73,no=74,missing=74
						73:leaf=-0.115361214
						74:leaf=-0.118860856
				20:[f2<-0.453222781] yes=41,no=42,missing=42
					41:leaf=-0.121982098
					42:leaf=-0.127242759
			10:[f2<-0.797789335] yes=21,no=22,missing=22
				21:[f2<-0.821464241] yes=43,no=44,missing=44
					43:[f2<-0.836595476] yes=75,no=76,missing=76
						75:leaf=-0.11855942
						76:leaf=-0.123338915
					44:[f16<-0.564441979] yes=77,no=78,missing=78
						77:leaf=-0.123872571
						78:leaf=-0.131186649
				22:[f2<-0.453222781] yes=45,no=46,missing=46
					45:[f16<-0.564441979] yes=79,no=80,missing=80
						79:leaf=-0.118318714
						80:leaf=-0.12084531
					46:leaf=-0.129456773
	2:[f2<-0.0600982048] yes=5,no=6,missing=6
		5:[f28<5.09442329] yes=11,no=12,missing=12
			11:[f23<5.27439022] yes=23,no=24,missing=24
				23:[f19<5.13780785] yes=47,no=48,missing=48
					47:[f25<4.52521372] yes=81,no=82,missing=82
						81:leaf=0.0513414629
						82:leaf=-0.149292797
					48:[f2<-0.167110011] yes=83,no=84,missing=84
						83:leaf=-0.167744562
						84:leaf=-0.229086086
				24:[f2<-0.235182479] yes=49,no=50,missing=50
					49:[f2<-0.274429977] yes=85,no=86,missing=86
						85:leaf=-0.152946398
						86:leaf=-0.174052075
					50:[f2<-0.191101372] yes=87,no=88,missing=88
						87:leaf=-0.206607208
						88:leaf=-0.239738613
			12:[f2<-0.235182479] yes=25,no=26,missing=26
				25:[f2<-0.274429977] yes=51,no=52,missing=52
					51:[f13<1.06103277] yes=89,no=90,missing=90
						89:leaf=-0.158322856
						90:leaf=-0.167066857
					52:[f2<-0.255711198] yes=91,no=92,missing=92
						91:leaf=-0.170155585
						92:leaf=-0.18226482
				26:[f2<-0.214232355] yes=53,no=54,missing=54
					53:leaf=-0.204198629
					54:[f2<-0.167110011] yes=93,no=94,missing=94
						93:leaf=-0.233729318
						94:leaf=-0.254600763
		6:[f2<2.45226288] yes=13,no=14,missing=14
			13:[f31<7.66522503] yes=27,no=28,missing=28
				27:[f19<5.13780785] yes=55,no=56,missing=56
					55:[f24<4.36744452] yes=95,no=96,missing=96
						95:leaf=0.0911634192
						96:leaf=-0.30602926
					56:leaf=-0.433309048
				28:leaf=-0.109658733
			14:[f13<1.03894579] yes=29,no=30,missing=30
				29:[f10<1.44792163] yes=57,no=58,missing=58
					57:[f3<-0.0424770527] yes=97,no=98,missing=98
						97:leaf=-0.13150911
						98:leaf=-0.291919112
					58:[f8<-0.288399816] yes=99,no=100,missing=100
						99:leaf=0.129415751
						100:leaf=-0.252818197
				30:[f16<1.52750432] yes=59,no=60,missing=60
					59:[f35<1.95829558] yes=101,no=102,missing=102
						101:leaf=0.0934230611
						102:leaf=0.0164590105
					60:[f10<-0.205371454] yes=103,no=104,missing=104
						103:leaf=0.087455973
						104:leaf=-0.459033072
booster[20]:
0:[f2<-0.0964327306] yes=1,no=2,missing=2
	1:[f18<4.99928808] yes=3,no=4,missing=4
		3:[f34<2.24811649] yes=7,no=8,missing=8
			7:[f35<1.95829558] yes=15,no=16,missing=16
				15:[f24<4.36744452] yes=31,no=32,missing=32
					31:[f28<5.09442329] yes=63,no=64,missing=64
						63:leaf=0.0259157009
						64:leaf=-0.104943231
					32:[f2<-0.235182479] yes=65,no=66,missing=66
						65:leaf=-0.115408063
						66:leaf=-0.0360066704
				16:[f22<3.28235865] yes=33,no=34,missing=34
					33:[f30<4.08141088] yes=67,no=68,missing=68
						67:leaf=-0.0205283463
						68:leaf=-0.11219158
					34:[f2<-0.142100319] yes=69,no=70,missing=70
						69:leaf=-0.112378374
						70:leaf=0.0556435697
			8:[f29<3.53301716] yes=17,no=18,missing=18
				17:[f26<4.99813557] yes=35,no=36,missing=36
					35:[f21<7.28345203] yes=71,no=72,missing=72
						71:leaf=0.220046386
						72:leaf=-0.0818608031
					36:[f2<-0.142100319] yes=73,no=74,missing=74
						73:leaf=-0.117486767
						74:leaf=-0.19277893
				18:[f2<-0.167110011] yes=37,no=38,missing=38
					37:[f2<-0.534919977] yes=75,no=76,missing=76
						75:leaf=-0.114402466
						76:leaf=-0.133565411
					38:[f2<-0.118235536] yes=77,no=78,missing=78
						77:leaf=-0.170482934
						78:leaf=-0.223566651
		4:[f13<-1.24198842] yes=9,no=10,missing=10
			9:[f16<-0.403826743] yes=19,no=20,missing=20
				19:[f2<-0.590755999] yes=39,no=40,missing=40
					39:[f2<-0.846347332] yes=79,no=80,missing=80
						79:leaf=-0.137548491
						80:leaf=-0.156163469
					40:[f2<-0.167110011] yes=81,no=82,missing=82
						81:leaf=-0.130630001
						82:leaf=-0.171591043
				20:[f2<-0.846347332] yes=41,no=42,missing=42
					41:leaf=-0.123207629
					42:[f2<-0.797789335] yes=83,no=84,missing=84
						83:leaf=-0.139317364
						84:leaf=-0.132465169
			10:[f2<-0.50275892] yes=21,no=22,missing=22
				21:[f13<1.06103277] yes=43,no=44,missing=44
					43:[f2<-0.845541894] yes=85,no=86,missing=86
						85:leaf=-0.1103274
						86:leaf=-0.118317924
					44:[f2<-0.797789335] yes=87,no=88,missing=88
						87:leaf=-0.128204778
						88:leaf=-0.121677361
				22:[f2<-0.118235536] yes=45,no=46,missing=46
					45:[f2<-0.255711198] yes=89,no=90,missing=90
						89:leaf=-0.128818557
						90:leaf=-0.137056932
					46:leaf=-0.179378375
	2:[f26<4.99813557] yes=5,no=6,missing=6
		5:[f29<3.53301716] yes=11,no=12,missing=12
			11:[f30<4.08141088] yes=23,no=24,missing=24
				23:[f27<5.40617275] yes=47,no=48,missing=48
					47:[f18<4.99928808] yes=91,no=92,missing=92
						91:leaf=0.102916971
						92:leaf=-0.0512799025
					48:[f2<1.026227] yes=93,no=94,missing=94
						93:leaf=-0.116406858
						94:leaf=-0.0118034808
				24:[f13<1.06103277] yes=49,no=50,missing=50
					49:[f2<1.11928153] yes=95,no=96,missing=96
						95:leaf=-0.119946025
						96:leaf=-0.000149915621
					50:[f2<0.931457222] yes=97,no=98,missing=98
						97:leaf=-0.116949156
						98:leaf=0.0956598818
			12:[f2<1.37115228] yes=25,no=26,missing=26
				25:[f13<-1.63250279] yes=51,no=52,missing=52
					51:[f10<-0.16566354] yes=99,no=100,missing=100
						99:leaf=-0.350260586
						100:leaf=0.129617378
					52:[f9<1.62614584] yes=101,no=102,missing=102
						101:leaf=-0.340709716
						102:leaf=-0.187760398
				26:[f2<2.45226288] yes=53,no=54,missing=54
					53:[f13<0.675910652] yes=103,no=104,missing=104
						103:leaf=0.0620557778
						104:leaf=0.106362425
					54:[f13<1.02797842] yes=105,no=106,missing=106
						105:leaf=-0.207668096
						106:leaf=0.0844169557
		6:[f2<0.931457222] yes=13,no=14,missing=14
			13:[f2<0.834293485] yes=27,no=28,missing=28
				27:[f13<1.22738397] yes=55,no=56,missing=56
					55:[f2<-0.0600982048] yes=107,no=108,missing=108
						107:leaf=-0.273722649
						108:leaf=-0.357488126
					56:[f2<0.554331779] yes=109,no=110,missing=110
						109:leaf=-0.355523437
						110:leaf=0.138600662
				28:[f32<0.958607733] yes=57,no=58,missing=58
					57:[f5<-0.0286706947] yes=111,no=112,missing=112
						111:leaf=0.0615454391
						112:leaf=-0.430236876
					58:[f16<-0.440382451] yes=113,no=114,missing=114
						113:leaf=-0.543979943
						114:leaf=-0.380652964
			14:[f2<2.26438832] yes=29,no=30,missing=30
				29:[f13<-0.248095259] yes=59,no=60,missing=60
					59:[f10<-0.16566354] yes=115,no=116,missing=116
						115:leaf=-0.961587608
						116:leaf=0.0612876676
					60:[f10<0.47327286] yes=117,no=118,missing=118
						117:leaf=0.109970905
						118:leaf=0.0989426374
				30:[f11<-1.50532901] yes=61,no=62,missing=62
					61:leaf=-0.168390259
					62:[f2<2.45226288] yes=119,no=120,missing=120
						119:leaf=-0.500136554
						120:leaf=-0.353147745
booster[21]:
0:[f2<-0.412856847] yes=1,no=2,missing=2
	1:[f2<-0.846347332] yes=3,no=4,missing=4
		3:[f20<4.02953911] yes=7,no=8,missing=8
			7:[f13<1.06103277] yes=15,no=16,missing=16
				15:[f2<-0.847900748] yes=29,no=30,missing=30
					29:[f17<5.62271261] yes=53,no=54,missing=54
						53:leaf=-0.106970347
						54:leaf=-0.0724258944
					30:[f12<-4.59192944] yes=55,no=56,missing=56
						55:leaf=0.206081733
						56:leaf=-0.0886008888
				16:[f10<-0.18010278] yes=31,no=32,missing=32
					31:[f16<-0.572037995] yes=57,no=58,missing=58
						57:leaf=0.088746272
						58:leaf=-0.0619436912
					32:[f5<-1.55783606] yes=59,no=60,missing=60
						59:leaf=-0.0785942301
						60:leaf=-0.10990154
			8:[f16<-0.252319217] yes=17,no=18,missing=18
				17:leaf=0.122970723
				18:leaf=0.132204369
		4:[f2<-0.797789335] yes=9,no=10,missing=10
			9:[f13<-0.280378968] yes=19,no=20,missing=20
				19:[f34<2.24811649] yes=33,no=34,missing=34
					33:[f35<1.95829558] yes=61,no=62,missing=62
						61:leaf=0.150528595
						62:leaf=-0.064550288
					34:[f21<7.28345203] yes=63,no=64,missing=64
						63:leaf=-0.110666685
						64:leaf=0.129212305
				20:[f2<-0.819134116] yes=35,no=36,missing=36
					35:[f23<5.27439022] yes=65,no=66,missing=66
						65:leaf=-0.0430861451
						66:leaf=-0.13292858
					36:[f10<-0.154834107] yes=67,no=68,missing=68
						67:leaf=-0.0625045598
						68:leaf=0.076441139
			10:[f20<4.02953911] yes=21,no=22,missing=22
				21:[f25<4.52521372] yes=37,no=38,missing=38
					37:[f23<5.27439022] yes=69,no=70,missing=70
						69:leaf=-0.00374136795
						70:leaf=-0.126452655
					38:[f2<-0.794596195] yes=71,no=72,missing=72
						71:leaf=-0.061872106
						72:leaf=-0.120655
				22:[f2<-0.794596195] yes=39,no=40,missing=40
					39:[f5<-1.42234039] yes=73,no=74,missing=74
						73:leaf=0.24987106
						74:leaf=-0.121447161
					40:[f2<-0.549677253] yes=75,no=76,missing=76
						75:leaf=-0.123945549
						76:leaf=-0.190153465
	2:[f2<-0.0328981765] yes=5,no=6,missing=6
		5:[f19<5.13780785] yes=11,no=12,missing=12
			11:[f34<2.24811649] yes=23,no=24,missing=24
				23:[f25<4.52521372] yes=41,no=42,missing=42
					41:[f18<4.99928808] yes=77,no=78,missing=78
						77:leaf=0.0573778339
						78:leaf=-0.140027329
					42:[f2<-0.255711198] yes=79,no=80,missing=80
						79:leaf=-0.127958298
						80:leaf=-0.175523028
				24:[f29<3.53301716] yes=43,no=44,missing=44
					43:[f26<4.99813557] yes=81,no=82,missing=82
						81:leaf=0.142384991
						82:leaf=-0.150620401
					44:[f2<-0.0762362778] yes=83,no=84,missing=84
						83:leaf=-0.143640265
						84:leaf=-0.309649199
			12:[f2<-0.142100319] yes=25,no=26,missing=26
				25:[f2<-0.255711198] yes=45,no=46,missing=46
					45:[f2<-0.396862715] yes=85,no=86,missing=86
						85:leaf=-0.169758141
						86:leaf=-0.155612752
					46:[f2<-0.167110011] yes=87,no=88,missing=88
						87:leaf=-0.170663074
						88:leaf=-0.186530069
				26:[f2<-0.0762362778] yes=47,no=48,missing=48
					47:[f2<-0.0964327306] yes=89,no=90,missing=90
						89:leaf=-0.209068537
						90:leaf=-0.228502229
					48:[f2<-0.0600982048] yes=91,no=92,missing=92
						91:leaf=-0.273682684
						92:leaf=-0.339308679
		6:[f31<7.66522503] yes=13,no=14,missing=14
			13:[f30<4.08141088] yes=27,no=28,missing=28
				27:[f34<2.24811649] yes=49,no=50,missing=50
					49:[f27<5.40617275] yes=93,no=94,missing=94
						93:leaf=0.101714335
						94:leaf=-0.0685292333
					50:[f2<0.963481903] yes=95,no=96,missing=96
						95:leaf=-0.183259159
						96:leaf=0.0917350054
				28:[f13<1.02797842] yes=51,no=52,missing=52
					51:[f13<-1.31345737] yes=97,no=98,missing=98
						97:leaf=0.0527195632
						98:leaf=-0.0619749427
					52:[f2<0.931457222] yes=99,no=100,missing=100
						99:leaf=-0.113091938
						100:leaf=0.0922506154
			14:leaf=-0.109579206
booster[22]:
0:[f2<-0.0964327306] yes=1,no=2,missing=2
	1:[f19<5.13780785] yes=3,no=4,missing=4
		3:[f18<4.99928808] yes=7,no=8,missing=8
			7:[f35<1.95829558] yes=15,no=16,missing=16
				15:[f34<2.24811649] yes=31,no=32,missing=32
					31:[f24<4.36744452] yes=53,no=54,missing=54
						53:leaf=0.0278392676
						54:leaf=-0.110411979
					32:[f10<-0.16566354] yes=55,no=56,missing=56
						55:leaf=-0.0584936924
						56:leaf=-0.103587978
				16:[f22<3.28235865] yes=33,no=34,missing=34
					33:[f30<4.08141088] yes=57,no=58,missing=58
						57:leaf=-0.0165394489
						58:leaf=-0.110754624
					34:[f2<-0.142100319] yes=59,no=60,missing=60
						59:leaf=-0.111131728
						60:leaf=0.0488284342
			8:[f13<-1.2245208] yes=17,no=18,missing=18
				17:[f16<-0.399404079] yes=35,no=36,missing=36
					35:[f2<-0.846347332] yes=61,no=62,missing=62
						61:leaf=-0.129122674
						62:leaf=-0.147683233
					36:[f2<-0.846347332] yes=63,no=64,missing=64
						63:leaf=-0.118392862
						64:leaf=-0.132665023
				18:[f2<-0.50275892] yes=37,no=38,missing=38
					37:[f2<-0.845541894] yes=65,no=66,missing=66
						65:leaf=-0.109960951
						66:leaf=-0.117308818
					38:[f2<-0.118235536] yes=67,no=68,missing=68
						67:leaf=-0.124463916
						68:leaf=-0.157656401
		4:[f2<-0.590755999] yes=9,no=10,missing=10
			9:[f13<-0.691158712] yes=19,no=20,missing=20
				19:[f13<-1.27778709] yes=39,no=40,missing=40
					39:[f16<-0.403826743] yes=69,no=70,missing=70
						69:leaf=-0.173042968
						70:leaf=-0.149562627
					40:[f2<-0.797789335] yes=71,no=72,missing=72
						71:leaf=-0.151271075
						72:leaf=-0.134407148
				20:[f13<1.06103277] yes=41,no=42,missing=42
					41:[f2<-0.845541894] yes=73,no=74,missing=74
						73:leaf=-0.108600296
						74:leaf=-0.118125908
					42:[f2<-0.6007092] yes=75,no=76,missing=76
						75:leaf=-0.132439837
						76:leaf=-0.00900735427
			10:[f2<-0.464528054] yes=21,no=22,missing=22
				21:[f10<-0.205371454] yes=43,no=44,missing=44
					43:[f13<1.16594553] yes=77,no=78,missing=78
						77:leaf=-0.149755001
						78:leaf=0.0649854392
					44:[f13<-0.262010008] yes=79,no=80,missing=80
						79:leaf=0.202124625
						80:leaf=-0.0392302722
				22:[f13<-1.79638767] yes=45,no=46,missing=46
					45:[f10<-0.302836329] yes=81,no=82,missing=82
						81:leaf=-0.166073427
						82:leaf=0.164307207
					46:[f10<-1.73593092] yes=83,no=84,missing=84
						83:leaf=-0.0683492571
						84:leaf=-0.15703854
	2:[f28<5.09442329] yes=5,no=6,missing=6
		5:[f23<5.27439022] yes=11,no=12,missing=12
			11:[f26<4.99813557] yes=23,no=24,missing=24
				23:[f29<3.53301716] yes=47,no=48,missing=48
					47:[f30<4.08141088] yes=85,no=86,missing=86
						85:leaf=0.0974965021
						86:leaf=0.0193309989
					48:[f2<1.41376293] yes=87,no=88,missing=88
						87:leaf=-0.236367732
						88:leaf=0.0880558565
				24:[f2<0.931457222] yes=49,no=50,missing=50
					49:[f2<0.834293485] yes=89,no=90,missing=90
						89:leaf=-0.244112402
						90:leaf=-0.0965291113
					50:[f13<-0.150986478] yes=91,no=92,missing=92
						91:leaf=5.18652196e-05
						92:leaf=0.105535507
			12:[f2<-0.0600982048] yes=25,no=26,missing=26
				25:leaf=-0.232001886
				26:[f2<-0.0328981765] yes=51,no=52,missing=52
					51:leaf=-0.395091504
					52:leaf=-0.408618927
		6:[f2<-0.0600982048] yes=13,no=14,missing=14
			13:[f2<-0.0762362778] yes=27,no=28,missing=28
				27:leaf=-0.197440699
				28:leaf=-0.243745044
			14:[f2<-0.0328981765] yes=29,no=30,missing=30
				29:leaf=-0.40815708
				30:leaf=-0.422286361
booster[23]:
0:[f2<-0.412856847] yes=1,no=2,missing=2
	1:[f23<5.27439022] yes=3,no=4,missing=4
		3:[f18<4.99928808] yes=7,no=8,missing=8
			7:[f19<5.13780785] yes=15,no=16,missing=16
				15:[f20<4.02953911] yes=31,no=32,missing=32
					31:[f35<1.95829558] yes=61,no=62,missing=62
						61:leaf=0.0227691531
						62:leaf=-0.0736827478
					32:[f2<-0.794596195] yes=63,no=64,missing=64
						63:leaf=0.13445504
						64:leaf=-0.122241579
				16:[f2<-0.590755999] yes=33,no=34,missing=34
					33:[f13<-0.691158712] yes=65,no=66,missing=66
						65:leaf=-0.140917212
						66:leaf=-0.117641501
					34:[f10<-0.205371454] yes=67,no=68,missing=68
						67:leaf=-0.113944404
						68:leaf=-0.0175250918
			8:[f13<-1.2245208] yes=17,no=18,missing=18
				17:[f16<-0.403826743] yes=35,no=36,missing=36
					35:[f2<-0.846347332] yes=69,no=70,missing=70
						69:leaf=-0.125681445
						70:leaf=-0.142237589
					36:[f2<-0.846347332] yes=71,no=72,missing=72
						71:leaf=-0.116341412
						72:leaf=-0.129105493
				18:[f2<-0.845541894] yes=37,no=38,missing=38
					37:[f13<1.06103277] yes=73,no=74,missing=74
						73:leaf=-0.10751801
						74:leaf=-0.11547064
					38:[f13<-0.691158712] yes=75,no=76,missing=76
						75:leaf=-0.122796573
						76:leaf=-0.115403689
		4:[f2<-0.794596195] yes=9,no=10,missing=10
			9:[f2<-0.814531505] yes=19,no=20,missing=20
				19:[f16<0.975997627] yes=39,no=40,missing=40
					39:[f13<1.12957585] yes=77,no=78,missing=78
						77:leaf=-0.122421734
						78:leaf=-0.1521772
					40:[f2<-0.819134116] yes=79,no=80,missing=80
						79:leaf=-0.110040687
						80:leaf=0.0493924133
				20:[f32<0.958607733] yes=41,no=42,missing=42
					41:[f5<-1.54622221] yes=81,no=82,missing=82
						81:leaf=0.0860345662
						82:leaf=-0.108146302
					42:[f10<-0.144004673] yes=83,no=84,missing=84
						83:leaf=-0.0849654227
						84:leaf=0.0765041038
			10:[f13<1.06103277] yes=21,no=22,missing=22
				21:[f2<-0.549677253] yes=43,no=44,missing=44
					43:[f2<-0.563456476] yes=85,no=86,missing=86
						85:leaf=-0.118228056
						86:leaf=-0.125437468
					44:[f2<-0.534919977] yes=87,no=88,missing=88
						87:leaf=-0.129750162
						88:leaf=-0.1405783
				22:[f2<-0.787951112] yes=45,no=46,missing=46
					45:[f5<1.46952426] yes=89,no=90,missing=90
						89:leaf=-0.134205848
						90:leaf=0.208700806
					46:[f16<-0.564441979] yes=91,no=92,missing=92
						91:leaf=-0.153080329
						92:leaf=-0.141458079
	2:[f2<-0.0328981765] yes=5,no=6,missing=6
		5:[f23<5.27439022] yes=11,no=12,missing=12
			11:[f28<5.09442329] yes=23,no=24,missing=24
				23:[f25<4.52521372] yes=47,no=48,missing=48
					47:[f34<2.24811649] yes=93,no=94,missing=94
						93:leaf=0.0549636297
						94:leaf=-0.0785871595
					48:[f2<-0.255711198] yes=95,no=96,missing=96
						95:leaf=-0.125306696
						96:leaf=-0.166506335
				24:[f2<-0.214232355] yes=49,no=50,missing=50
					49:[f2<-0.255711198] yes=97,no=98,missing=98
						97:leaf=-0.151823103
						98:leaf=-0.175773695
					50:[f2<-0.0600982048] yes=99,no=100,missing=100
						99:leaf=-0.211265564
						100:leaf=-0.304854542
			12:[f2<-0.235182479] yes=25,no=26,missing=26
				25:[f2<-0.274429977] yes=51,no=52,missing=52
					51:[f2<-0.362374604] yes=101,no=102,missing=102
						101:leaf=-0.146180302
						102:leaf=-0.154218689
					52:[f2<-0.255711198] yes=103,no=104,missing=104
						103:leaf=-0.163825378
						104:leaf=-0.176993608
				26:[f2<-0.0600982048] yes=53,no=54,missing=54
					53:[f2<-0.191101372] yes=105,no=106,missing=106
						105:leaf=-0.196991757
						106:leaf=-0.218372867
					54:leaf=-0.298748374
		6:[f2<2.45226288] yes=13,no=14,missing=14
			13:[f31<7.66522503] yes=27,no=28,missing=28
				27:[f24<4.36744452] yes=55,no=56,missing=56
					55:[f27<5.40617275] yes=107,no=108,missing=108
						107:leaf=0.0853901729
						108:leaf=-0.0687303171
					56:[f13<1.08764744] yes=109,no=110,missing=110
						109:leaf=-1.05599916
						110:leaf=0.0259125475
				28:leaf=-0.109478429
			14:[f13<1.05006289] yes=29,no=30,missing=30
				29:[f5<-0.299662024] yes=57,no=58,missing=58
					57:[f8<-0.280283481] yes=111,no=112,missing=112
						111:leaf=-0.0225305241
						112:leaf=-0.194610387
					58:[f29<3.53301716] yes=113,no=114,missing=114
						113:leaf=-0.156188533
						114:leaf=-0.37738055
				30:[f8<-0.152548745] yes=59,no=60,missing=60
					59:[f32<0.958607733] yes=115,no=116,missing=116
						115:leaf=0.0965157673
						116:leaf=0.0284964126
					60:[f10<0.0292662159] yes=117,no=118,missing=118
						117:leaf=0.0369033106
						118:leaf=-0.337035626
booster[24]:
0:[f2<-0.0762362778] yes=1,no=2,missing=2
	1:[f28<5.09442329] yes=3,no=4,missing=4
		3:[f24<4.36744452] yes=7,no=8,missing=8
			7:[f25<4.52521372] yes=15,no=16,missing=16
				15:[f34<2.24811649] yes=31,no=32,missing=32
					31:[f35<1.95829558] yes=63,no=64,missing=64
						63:leaf=0.035505373
						64:leaf=-0.0672067031
					32:[f29<3.53301716] yes=65,no=66,missing=66
						65:leaf=-0.0691537932
						66:leaf=-0.114135139
				16:[f2<-0.794596195] yes=33,no=34,missing=34
					33:[f13<1.02797842] yes=67,no=68,missing=68
						67:leaf=-0.104446404
						68:leaf=0.0403934941
					34:[f13<1.06103277] yes=69,no=70,missing=70
						69:leaf=-0.117032818
						70:leaf=-0.131142363
			8:[f2<-0.235182479] yes=17,no=18,missing=18
				17:[f7<-1.57878613] yes=35,no=36,missing=36
					35:[f2<-0.327567041] yes=71,no=72,missing=72
						71:leaf=-0.112729184
						72:leaf=0.113673463
					36:[f2<-0.453222781] yes=73,no=74,missing=74
						73:leaf=-0.112028055
						74:leaf=-0.12491589
				18:[f13<1.02797842] yes=37,no=38,missing=38
					37:[f16<-0.198684961] yes=75,no=76,missing=76
						75:leaf=-0.500289977
						76:leaf=-0.223033115
					38:[f32<0.958607733] yes=77,no=78,missing=78
						77:leaf=-0.128290281
						78:leaf=0.0964537635
		4:[f2<-0.712266147] yes=9,no=10,missing=10
			9:[f13<1.06103277] yes=19,no=20,missing=20
				19:[f6<1.62141335] yes=39,no=40,missing=40
					39:[f4<-1.00812221] yes=79,no=80,missing=80
						79:leaf=-0.0894616172
						80:leaf=-0.114569165
					40:[f11<0.408709079] yes=81,no=82,missing=82
						81:leaf=0.321966112
						82:leaf=-0.120713256
				20:[f2<-0.816746533] yes=41,no=42,missing=42
					41:[f4<-1.80254114] yes=83,no=84,missing=84
						83:leaf=0.158928916
						84:leaf=-0.13528356
					42:[f2<-0.797789335] yes=85,no=86,missing=86
						85:leaf=0.098230198
						86:leaf=-0.0649532527
			10:[f2<-0.534919977] yes=21,no=22,missing=22
				21:[f13<1.06103277] yes=43,no=44,missing=44
					43:[f2<-0.58565551] yes=87,no=88,missing=88
						87:leaf=-0.11898724
						88:leaf=-0.126631781
					44:[f16<-0.564441979] yes=89,no=90,missing=90
						89:leaf=-0.160458967
						90:leaf=-0.145896569
				22:[f2<-0.235182479] yes=45,no=46,missing=46
					45:[f13<1.06103277] yes=91,no=92,missing=92
						91:leaf=-0.148088396
						92:leaf=-0.164330885
					46:[f2<-0.214232355] yes=93,no=94,missing=94
						93:leaf=-0.16986993
						94:leaf=-0.190275535
	2:[f30<4.08141088] yes=5,no=6,missing=6
		5:[f34<2.24811649] yes=11,no=12,missing=12
			11:[f18<4.99928808] yes=23,no=24,missing=24
				23:[f27<5.40617275] yes=47,no=48,missing=48
					47:[f31<7.66522503] yes=95,no=96,missing=96
						95:leaf=0.100220062
						96:leaf=-0.108551003
					48:[f2<1.026227] yes=97,no=98,missing=98
						97:leaf=-0.114620425
						98:leaf=-0.00639462331
				24:[f2<0.199491739] yes=49,no=50,missing=50
					49:[f13<1.30781722] yes=99,no=100,missing=100
						99:leaf=-0.406307697
						100:leaf=-0.00102030707
					50:[f13<1.06103277] yes=101,no=102,missing=102
						101:leaf=-0.0591210686
						102:leaf=0.0976133123
			12:[f2<1.026227] yes=25,no=26,missing=26
				25:[f29<3.53301716] yes=51,no=52,missing=52
					51:[f26<4.99813557] yes=103,no=104,missing=104
						103:leaf=0.107810609
						104:leaf=-0.202728197
					52:[f2<0.963481903] yes=105,no=106,missing=106
						105:leaf=-0.220903039
						106:leaf=-0.260536104
				26:[f2<2.45226288] yes=53,no=54,missing=54
					53:[f13<0.32549721] yes=107,no=108,missing=108
						107:leaf=0.047851596
						108:leaf=0.101562873
					54:[f13<0.946585774] yes=109,no=110,missing=110
						109:leaf=-0.165874764
						110:leaf=0.0699730217
		6:[f13<1.06103277] yes=13,no=14,missing=14
			13:[f2<1.14821601] yes=27,no=28,missing=28
				27:[f10<1.0327934] yes=55,no=56,missing=56
					55:[f2<0.931457222] yes=111,no=112,missing=112
						111:leaf=-0.1225003
						112:leaf=-0.201980188
					56:[f2<0.866720319] yes=113,no=114,missing=114
						113:leaf=-0.121319138
						114:leaf=0.0604142547
				28:[f2<2.11560917] yes=57,no=58,missing=58
					57:[f0<3.4337759] yes=115,no=116,missing=116
						115:leaf=0.0344072841
						116:leaf=-0.848574936
					58:[f10<1.5345571] yes=117,no=118,missing=118
						117:leaf=-0.183711573
						118:leaf=0.110927418
			14:[f2<0.931457222] yes=29,no=30,missing=30
				29:[f4<1.46259379] yes=59,no=60,missing=60
					59:[f2<0.866720319] yes=119,no=120,missing=120
						119:leaf=-0.118490182
						120:leaf=-0.13415879
					60:leaf=0.0635832846
				30:[f10<-0.16566354] yes=61,no=62,missing=62
					61:[f2<2.45226288] yes=121,no=122,missing=122
						121:leaf=0.108784795
						122:leaf=0.139135197
					62:[f10<-0.0429299884] yes=123,no=124,missing=124
						123:leaf=-0.356736511
						124:leaf=0.0597143434
booster[25]:
0:[f2<-0.412856847] yes=1,no=2,missing=2
	1:[f23<5.27439022] yes=3,no=4,missing=4
		3:[f18<4.99928808] yes=7,no=8,missing=8
			7:[f20<4.02953911] yes=15,no=16,missing=16
				15:[f34<2.24811649] yes=31,no=32,missing=32
					31:[f25<4.52521372] yes=61,no=62,missing=62
						61:leaf=0.0257804487
						62:leaf=-0.0863954127
					32:[f13<-1.13362098] yes=63,no=64,missing=64
						63:leaf=-0.0591931306
						64:leaf=-0.103466921
				16:[f2<-0.794596195] yes=33,no=34,missing=34
					33:[f13<-0.354208887] yes=65,no=66,missing=66
						65:leaf=0.128775716
						66:leaf=-0.217100367
					34:[f13<-1.27778709] yes=67,no=68,missing=68
						67:leaf=-0.125827834
						68:leaf=-0.116410039
			8:[f13<-1.2245208] yes=17,no=18,missing=18
				17:[f16<-0.403826743] yes=35,no=36,missing=36
					35:[f2<-0.846347332] yes=69,no=70,missing=70
						69:leaf=-0.123476647
						70:leaf=-0.138109133
					36:[f2<-0.846347332] yes=71,no=72,missing=72
						71:leaf=-0.115072384
						72:leaf=-0.126536712
				18:[f2<-0.845541894] yes=37,no=38,missing=38
					37:[f13<1.06103277] yes=73,no=74,missing=74
						73:leaf=-0.106998041
						74:leaf=-0.114351109
					38:[f2<-0.797789335] yes=75,no=76,missing=76
						75:leaf=-0.117513575
						76:leaf=-0.113706701
		4:[f2<-0.794596195] yes=9,no=10,missing=10
			9:[f2<-0.816746533] yes=19,no=20,missing=20
				19:[f16<0.975997627] yes=39,no=40,missing=40
					39:[f13<1.06103277] yes=77,no=78,missing=78
						77:leaf=-0.120855585
						78:leaf=-0.144588277
					40:[f16<1.23741102] yes=79,no=80,missing=80
						79:leaf=-0.0163904484
						80:leaf=-0.125779733
				20:[f13<1.03894579] yes=41,no=42,missing=42
					41:[f12<1.39767933] yes=81,no=82,missing=82
						81:leaf=-0.0673167855
						82:leaf=0.256661266
					42:[f10<-0.118735999] yes=83,no=84,missing=84
						83:leaf=-0.0284829475
						84:leaf=0.087879397
			10:[f13<1.13380909] yes=21,no=22,missing=22
				21:[f2<-0.549677253] yes=43,no=44,missing=44
					43:[f2<-0.787951112] yes=85,no=86,missing=86
						85:leaf=-0.0971506163
						86:leaf=-0.1185854
					44:[f13<1.06103277] yes=87,no=88,missing=88
						87:leaf=-0.135294423
						88:leaf=-0.151018202
				22:[f2<-0.563456476] yes=45,no=46,missing=46
					45:[f16<-0.564441979] yes=89,no=90,missing=90
						89:leaf=-0.145650655
						90:leaf=-0.13536495
					46:[f2<-0.453222781] yes=91,no=92,missing=92
						91:leaf=-0.151101813
						92:leaf=-0.139260352
	2:[f2<0.494339138] yes=5,no=6,missing=6
		5:[f34<2.24811649] yes=11,no=12,missing=12
			11:[f18<4.99928808] yes=23,no=24,missing=24
				23:[f23<5.27439022] yes=47,no=48,missing=48
					47:[f19<5.13780785] yes=93,no=94,missing=94
						93:leaf=0.064591907
						94:leaf=-0.171265244
					48:[f2<-0.0600982048] yes=95,no=96,missing=96
						95:leaf=-0.159084722
						96:leaf=-0.329673469
				24:[f2<0.343107671] yes=49,no=50,missing=50
					49:[f2<-0.0600982048] yes=97,no=98,missing=98
						97:leaf=-0.128546819
						98:leaf=-0.257910699
					50:[f5<1.48888075] yes=99,no=100,missing=100
						99:leaf=0.0328968838
						100:leaf=-0.745730102
			12:[f29<3.53301716] yes=25,no=26,missing=26
				25:[f26<4.99813557] yes=51,no=52,missing=52
					51:[f2<-0.274429977] yes=101,no=102,missing=102
						101:leaf=0.16674684
						102:leaf=0.115210287
					52:[f2<-0.118235536] yes=103,no=104,missing=104
						103:leaf=-0.121476449
						104:leaf=-0.198248282
				26:[f2<-0.118235536] yes=53,no=54,missing=54
					53:[f2<-0.167110011] yes=105,no=106,missing=106
						105:leaf=-0.12061353
						106:leaf=-0.13899295
					54:[f2<-0.0762362778] yes=107,no=108,missing=108
						107:leaf=-0.162225813
						108:leaf=-0.196882337
		6:[f2<2.45226288] yes=13,no=14,missing=14
			13:[f31<7.66522503] yes=27,no=28,missing=28
				27:[f30<4.08141088] yes=55,no=56,missing=56
					55:[f27<5.40617275] yes=109,no=110,missing=110
						109:leaf=0.0947549716
						110:leaf=-0.0244814865
					56:[f13<1.02797842] yes=111,no=112,missing=112
						111:leaf=-0.00558287371
						112:leaf=0.0885780379
				28:leaf=-0.10761676
			14:[f13<1.06103277] yes=29,no=30,missing=30
				29:[f17<5.62271261] yes=57,no=58,missing=58
					57:[f9<-1.258883] yes=113,no=114,missing=114
						113:leaf=-0.00564498734
						114:leaf=-0.152557239
					58:[f15<-0.555429518] yes=115,no=116,missing=116
						115:leaf=0.118535064
						116:leaf=-0.0202708449
				30:[f35<1.95829558] yes=59,no=60,missing=60
					59:[f31<7.66522503] yes=117,no=118,missing=118
						117:leaf=0.0823642537
						118:leaf=-0.110340022
					60:[f8<-0.287584692] yes=119,no=120,missing=120
						119:leaf=0.0635957569
						120:leaf=-0.316088766
booster[26]:
0:[f2<-0.0762362778] yes=1,no=2,missing=2
	1:[f19<5.13780785] yes=3,no=4,missing=4
		3:[f28<5.09442329] yes=7,no=8,missing=8
			7:[f24<4.36744452] yes=15,no=16,missing=16
				15:[f35<1.95829558] yes=29,no=30,missing=30
					29:[f20<4.02953911] yes=53,no=54,missing=54
						53:leaf=0.0354624204
						54:leaf=-0.0787097886
					30:[f13<0.714010596] yes=55,no=56,missing=56
						55:leaf=-0.0775376484
						56:leaf=-0.00548519008
				16:[f2<-0.235182479] yes=31,no=32,missing=32
					31:[f7<-1.57878613] yes=57,no=58,missing=58
						57:leaf=-0.0944493711
						58:leaf=-0.112036362
					32:[f13<1.02797842] yes=59,no=60,missing=60
						59:leaf=-0.2679075
						60:leaf=0.0733048022
			8:[f2<-0.712266147] yes=17,no=18,missing=18
				17:[f13<1.06103277] yes=33,no=34,missing=34
					33:[f6<1.62141335] yes=61,no=62,missing=62
						61:leaf=-0.107345223
						62:leaf=-0.00618053274
					34:[f2<-0.816746533] yes=63,no=64,missing=64
						63:leaf=-0.128749192
						64:leaf=0.0128408447
				18:[f2<-0.534919977] yes=35,no=36,missing=36
					35:[f13<1.06103277] yes=65,no=66,missing=66
						65:leaf=-0.118391447
						66:leaf=-0.142808542
					36:[f2<-0.235182479] yes=67,no=68,missing=68
						67:leaf=-0.145574853
						68:leaf=-0.176068753
		4:[f2<-0.6007092] yes=9,no=10,missing=10
			9:[f13<-0.691158712] yes=19,no=20,missing=20
				19:[f13<-1.27778709] yes=37,no=38,missing=38
					37:[f16<-0.403826743] yes=69,no=70,missing=70
						69:leaf=-0.157006368
						70:leaf=-0.139521062
					38:[f2<-0.797789335] yes=71,no=72,missing=72
						71:leaf=-0.140790388
						72:leaf=-0.127772018
				20:[f13<1.06103277] yes=39,no=40,missing=40
					39:[f2<-0.845541894] yes=73,no=74,missing=74
						73:leaf=-0.107292235
						74:leaf=-0.115251258
					40:[f2<-0.837746143] yes=75,no=76,missing=76
						75:leaf=-0.112554424
						76:leaf=-0.130025744
			10:[f16<-0.624410391] yes=21,no=22,missing=22
